256
-0.00953616 -0.0108253 -0.00689225 0.0750634 -0.00200191 -0.0037836 -0.00486924 -0.00333341 -0.0217424 -0.00242693 -0.150347 -0.0181099 0.325228 0.0777315 -0.00421806 -0.00187963 -0.00563936 -0.0447982 0.0820159 0.183118 0.181067 0.0259572 -0.0648964 0.0841748 0.0500442 0.10652 -0.00182388 -0.00167061 -0.00760982 -0.00175945 -0.00705954 -0.0022788 -0.00534079 -0.00234262 -0.0034015 -0.00108794 -0.00128159 0.0879808 -0.0192629 -0.00404899 -0.00200704 0.0797852 -0.00235238 0.117984 -0.00405947 -0.00363841 -0.0104018 0.129189 0.0972668 0.110177 0.00345804 -0.00992156 0.0264684 -0.00783697 -0.333072 0.0374485 0.00538103 -0.00298508 -0.00404353 -0.0211917 -0.011227 0.240697 0.127973 -0.00324587 -0.00264433 0.0734888 -0.0137035 0.0164658 0.027152 -0.00226078 -0.00516773 0.0421491 -0.00329256 0.0953203 -0.000858222 -0.00246079 0.0572014 0.0514666 -0.00749158 0.0107341 -0.00289635 -0.0134834 -0.282269 0.0841448 0.116416 -0.00224503 0.0157426 0.053524 -0.00303817 0.0829675 0.00167654 -0.00262519 -0.00531159 0.100319 0.0498562 -0.0170924 -0.000372941 0.000406112 0.000676748 0.00132848 -0.00248442 -0.0184198 0.00127287 -0.00214281 -0.00684779 -0.00114383 -0.0032945 -0.00328819 -0.000627203 -0.0221395 0.0151711 0.00751966 -0.00203833 0.0806372 -0.0123832 -0.0111984 -0.00640497 -0.00236796 0.0661828 0.00108092 0.026673 -0.00104423 0.280123 0.127659 0.0149169 -0.00441069 -0.00691611 -0.00053292 -0.0441992 -0.0836563 -0.0132349 -0.00481604 -0.00282138 -0.0026474 -0.0323708 -0.00200674 -0.666652 0.0569479 0.0979799 -0.0403151 0.109288 0.00247309 -0.0312607 -0.00789382 -0.00200705 0.0634799 -0.00642136 -0.00359349 0.0600479 0.0929561 -0.000734282 -0.0225339 -0.00353328 -0.0017607 0.0372168 0.146409 -0.00311964 -0.00384092 -0.00100527 0.0786579 -0.653211 0.000785647 -0.0106558 0.00165261 -0.00438621 0.0482578 -0.00304119 -0.00994473 -0.00104423 -0.441376 0.0148519 -0.0391699 0.0822402 0.101279 -0.00427499 0.00485485 -0.0333146 0.0714814 -0.00936355 -0.0440488 -0.00117863 0.0384989 0.0715591 0.101948 0.0210148 1.03113 0.00192809 -0.146478 -0.00116581 0.0100994 -0.0756594 0.0354629 -0.456131 0.0232382 -0.00740648 -0.0023263 -0.00391282 0.0592021 -0.00458508 -0.00306446 -0.0712053 0.0478974 0.104691 -0.00265012 -0.00233291 -0.0155432 0.112042 0.032536 0.0812723 0.200851 0.0570979 -0.0060343 -0.00387617 -0.00742454 0.0370765 -0.31354 -0.00108985 -0.00629633 -0.00333731 -0.0139262 -0.00209559 -0.00241715 -0.00396945 -0.0236766 -0.000469627 0.0442176 -0.00380284 -0.00044378 -0.00200704 -0.00947914 0.119033 -0.670882 -0.00811825 -0.00200705 0.190932 -0.00439738 -0.0022611 0.277958 -0.0105494 -0.0132553 0.00373081 0.0389956 0.144362 -0.00375742 -0.00437925 -0.0109751 -0.0199298 0.00161656 -0.0049735 0.205967 -0.00200639 -0.0111372 -0.00204887 0.0011134 0.076936 -0.00458606
