256 128
-0.0377597 -0.0389146 -0.117093 -0.0597248 -0.113268 0.0382794 -0.00753406 -0.0713816 0.216867 -0.0686305 0.0537843 0.0715744 -0.0362943 -0.0353125 -0.0615238 -0.102838 -0.0549717 -0.00147148 0.0201894 0.0161742 0.106627 0.0199057 0.0264272 0.0566235 0.0150177 0.174664 -0.0263481 -0.0806512 0.0842324 -0.0411208 -0.015258 -0.000707871 0.0997088 0.0622241 -0.0283064 -0.106089 0.0472811 -0.00858714 0.0506783 -0.0193136 -0.0594644 -0.00640146 0.0417442 0.0190178 -0.145905 -0.11331 -0.0481613 0.0478378 -0.0616832 0.0414517 -0.0441147 -0.025138 -0.0384423 -0.033817 0.0295647 -0.0807918 0.10239 -0.0310056 -0.102958 0.0456451 0.0123502 0.0325216 0.112905 -0.00157941 0.0147178 0.0123221 0.0860458 0.172717 0.0852669 0.00967603 0.00490398 -0.0380091 -0.0215156 0.0389379 0.0993241 0.045887 -0.0756823 0.00646965 0.0131811 -0.161949 0.0516074 -0.0226642 0.141612 -0.18033 -0.146351 0.0583014 0.0700519 -0.042413 -0.0428484 0.0568043 -0.0907082 0.18546 0.0311447 -0.14017 -0.058337 0.0802909 -0.0445728 0.031156 -0.0310073 -0.0358362 0.0518737 0.108137 0.00730803 0.0596829 -0.0753812 0.033643 -0.0843055 -0.0523307 0.0104344 -0.155939 0.0745664 0.182219 0.0161791 0.150331 -0.0628216 0.0632569 0.018382 -0.066799 -0.120505 0.152963 -0.0397128 0.061785 0.070223 -0.0226536 -0.0482262 0.0186858 -0.0249903 0.00276936
0.0658763 0.00230327 -0.00961856 0.0214899 -0.0432986 0.0269447 0.0127829 -0.025776 -0.123833 0.0596508 -0.0128982 0.105902 0.0876969 -0.080909 0.053132 -0.0156918 -0.023259 -0.101677 0.0395395 0.153461 0.238737 -0.116426 0.0651468 -0.106982 -0.0646327 -0.0325234 -0.0331231 -0.0633229 0.0582848 -0.106167 -0.0367506 -0.0319557 -0.0387918 0.0356386 0.0341739 0.00993787 -0.0486194 0.0475765 -0.0094059 0.146539 0.11905 0.0620819 -0.0482224 -0.0645576 -0.0674679 -0.0178236 -0.00970845 0.001057 0.042077 0.0506956 -0.0507384 0.0627547 0.0140868 0.0616339 0.159612 -0.0426387 0.0478773 0.0261471 -0.0281778 0.100137 0.0105548 -0.0677747 0.0429936 -0.173319 -0.0496057 0.0507947 0.0293218 0.029624 -0.177742 0.0890062 -0.0958144 0.0281894 0.0211271 -0.0289439 0.0235755 -0.0778433 -0.000983843 0.151305 -0.131418 0.0694785 0.0282756 -0.0421563 0.0252976 0.0155533 -0.0358551 0.152818 0.0258765 -0.0306393 0.0180265 0.0632652 -0.0304871 -0.0166998 0.147236 -0.0250817 0.0355394 -0.0516948 0.000980534 0.0624757 -0.0726988 -0.0528285 -0.108654 -0.018522 -0.0297928 0.00150215 -0.020807 0.00387612 0.0280116 0.00240871 0.0335487 0.032898 -0.0699762 0.0486053 0.0027601 -0.110529 -0.0681269 -0.0201102 -0.0726709 -0.0365003 0.0880628 -0.0568327 0.049242 -0.0246525 0.0347258 0.0143276 -0.0796671 0.0467953 -0.0302702 0.0234904
-0.0462551 0.0677455 0.00119346 -0.0825878 0.0591157 -0.0162499 0.0600323 -0.0264724 -0.00385956 -0.122744 0.0529807 -0.0158424 -0.0570248 0.0502825 -0.07653 0.000275737 -0.0298248 -0.0351919 0.20195 0.0653265 0.0871128 0.0257295 0.00396549 -0.0783712 -0.0173376 0.0734055 -0.0374311 0.0347481 -0.00935906 0.0914362 0.00687257 0.0818293 -0.0951783 -0.101351 0.0926458 0.0171989 -0.0399553 -0.0664087 -0.104923 0.0153499 0.077364 -0.0412852 -0.00949662 -0.0200496 -0.0458239 0.0733022 0.0589411 -0.0192674 0.0173663 0.0724047 -0.0804073 -0.0351419 0.0104203 0.166198 -0.185699 0.0797934 -0.112338 -0.116884 -0.0135828 0.0297438 -0.0630434 -0.0435057 -0.00521204 -0.041099 0.00404804 -0.0091441 -0.0810613 0.0740459 -0.107246 0.161234 0.048963 0.0158302 0.0578333 0.073455 -0.0489342 -0.0670009 0.00124285 0.00631786 0.0429887 -0.00263325 -0.0519155 0.127414 0.0355711 -0.0947922 0.0341519 0.0307472 0.00303478 0.0500237 0.0264681 -0.082484 -0.0736364 -0.11152 0.0999982 0.0781737 -0.193877 -0.0480782 -0.0206297 -0.0840696 0.0613809 0.00114656 -0.0285448 -0.0341501 0.102604 0.0779899 -0.140152 -0.0903185 -0.000749727 -0.0825423 -0.0693506 -0.0270879 -0.0992958 -0.018268 0.161652 -0.070399 -0.102733 -0.0020272 0.171503 0.0605352 0.0329688 0.0166691 -0.00597936 0.0672868 -0.0373171 -0.0732716 -0.119522 -0.0538309 -0.0200452 0.0402948
0.109965 -0.0971893 -0.031432 0.0664444 0.107143 -0.011187 -0.0225058 -0.104815 0.0306244 0.0850994 0.109229 0.0373799 0.0932185 0.110909 0.0390896 0.0114597 -0.143055 0.135904 -0.0447366 -0.102817 0.166358 -0.0598153 0.282886 0.0315272 0.127677 0.162613 -0.0716906 0.196411 0.0137529 -0.0715855 0.168822 0.071332 -0.161995 -0.0132797 0.050591 0.0356951 0.00445638 -0.00719672 0.0986681 0.0972003 0.0150261 0.0145367 -0.0259642 -0.0951461 0.0066242 0.0429975 0.0662419 -0.111332 -0.115342 -0.071823 0.154381 -0.130962 -0.0804717 0.0669115 0.215051 0.189989 0.0883052 -0.0839714 -0.00213515 0.00880887 -0.165019 0.148596 0.0273919 -0.127472 -0.193403 -0.0261047 0.0238036 -0.158871 0.0417297 -0.180418 0.036248 0.0396354 0.0146183 -0.0216063 -0.0303903 0.0306228 -0.114037 -0.0672734 -0.0644921 -0.0404173 0.0120752 0.223439 -0.0733844 0.107111 -0.0199217 -0.0116771 -0.133951 -0.0113056 0.00707161 -0.0704573 0.0982163 0.240839 -0.0541687 -0.00883509 0.11237 -0.128166 0.167184 -0.0673438 0.0128782 0.0306134 0.00499908 -0.0236157 0.135238 -0.0353524 -0.106562 -0.127007 0.00853778 -0.107324 -0.0507245 -0.0327734 -0.0655581 -0.0137809 -0.14678 -0.0518286 0.0599647 0.126151 -0.138132 -0.106923 -0.17559 -0.106245 -0.136054 0.221627 0.0901896 -0.0751078 -0.0595429 -0.0056171 0.0901128 0.0260101
0.0127742 0.078467 0.0858473 -0.135623 -0.0211081 0.0625512 0.0192179 0.0111826 -0.0482895 -0.0812506 0.0435958 0.0083284 -0.00297237 0.0860732 0.0187556 0.177565 0.000253931 0.0293213 -0.00414206 -0.0406363 0.0230848 0.0164493 -0.0517616 0.00777615 0.0454544 -0.12819 0.0873504 0.0258913 0.0184201 -0.074397 -0.0260625 -0.0293719 -0.113567 0.0327311 0.0422724 0.0817875 0.0685489 0.0742972 -0.0466948 0.00612111 -0.109725 0.0489097 0.0157909 -0.00156548 -0.0260916 0.045899 -0.111011 0.0869892 -0.0177432 -0.0413077 -0.0808864 -0.0778043 -0.0574573 0.0860521 0.0547751 0.00687207 -0.0121126 0.124906 -0.0671855 -0.024824 -0.109598 0.0266587 -0.044015 -0.0200223 -0.0077654 0.0450719 0.0985959 -0.0569659 -0.0400782 -0.0459317 -0.161396 0.033745 -0.0650037 -0.000719815 -0.0369601 -0.11977 -0.0267794 -0.0330294 -0.0112788 0.0504688 0.00379102 0.0978385 0.0175453 0.100673 -0.0616697 0.065859 0.0322084 -0.0187935 -0.105044 0.0192818 -0.050473 -0.0436229 0.0244038 0.107473 0.00435998 0.040548 0.0359006 -0.0510095 -0.0119805 -0.118649 0.0197003 0.0982707 -0.00394405 0.0855691 0.0171174 -0.0210073 -0.0484576 0.00828086 0.157524 -0.00486932 -0.0306551 0.0658362 0.0155671 -0.0531613 -0.0421928 -0.0625081 -0.0646579 -0.0104755 0.0841534 -0.0897064 -0.0248343 -0.0962912 -0.0115402 0.0325198 0.0591053 -0.0162338 0.0702464 0.0830818
0.145441 -0.0342371 -0.199074 0.0145524 0.0217063 0.0941752 -0.0967431 0.0748667 -0.0824789 -0.0059027 -0.0174079 -0.190725 -0.128573 -0.174542 -0.00454264 0.0593583 -0.0075524 -0.0872568 -0.0454664 0.0357589 -0.0366747 0.0774275 0.104432 -0.0857397 -0.100881 -0.0236274 0.0761463 -0.000225877 0.141518 0.0539503 0.110868 0.0914452 -0.120155 -0.0678382 0.17666 -0.00793572 0.0118531 -0.0137321 -0.0660629 -0.0160044 0.136251 -0.0128659 0.0893859 -0.0146749 0.0291825 -0.0195737 -0.00319995 0.0165102 0.0427104 0.0206678 -0.00132907 -0.0511447 0.0898359 -0.0997398 0.0664629 -0.0760204 0.0475786 0.032638 0.0494974 0.153277 -0.0907089 0.0581261 0.0175719 0.0464523 -0.0149799 -0.0177363 0.0247833 0.0308923 0.00177144 0.0595692 0.0638332 -0.0486374 -0.0436962 0.0233093 -0.0187012 0.102688 0.0782201 -0.0872223 0.0636924 -0.0332992 -0.0434388 -0.00841318 0.0814399 -0.0887147 0.0820076 -0.0493306 0.0660388 -0.0697618 -0.11395 0.0556989 0.0166649 -0.132729 0.0339305 0.0786977 -0.00870417 -0.0005614 -0.0246345 0.00106594 0.0801453 -0.0635533 0.0132218 -0.087992 0.172857 -0.00609387 -0.0542353 0.055435 0.0356036 -0.0011683 -0.0377178 0.106426 -0.0857708 -0.0374767 -0.0277824 0.0373052 0.0854404 -0.020622 -0.0535021 -0.0795528 -0.0389779 0.170649 -0.0115627 -0.023431 -0.0195289 0.0319704 -0.0159121 0.173977 0.0473116 -0.0374969
0.0368946 0.0548014 -0.0408911 -0.0827308 0.107855 0.0929394 0.0491839 0.0215972 0.0461306 0.0257084 0.00405225 -2.49109e-05 -0.0669822 0.0744107 0.0372572 -0.0736203 0.0522772 0.140832 -0.0564018 0.183338 -0.109595 0.0520908 -0.103362 0.00744766 -0.0253038 -0.0823595 -0.105042 -0.00853385 0.0655293 0.000772492 0.0497808 -0.00526708 0.14242 0.035673 -0.00661551 -0.128698 -0.117416 0.0799474 0.0058234 -0.0296607 -0.00115989 0.0923699 0.112645 0.0999231 -0.0498038 -0.0198506 0.0285111 0.0598428 0.0540389 -0.100194 0.0256144 0.0825944 -0.160264 -0.0850786 -0.02057 -0.154189 0.0294398 0.0203686 -0.0287275 -0.0572053 -0.115241 0.0736558 -0.00841599 -0.00256022 0.0108311 -0.163337 -0.0492949 0.0318598 0.0631686 0.0290554 -0.0580094 -0.0191502 0.0505131 0.0294751 0.0646803 -0.0263377 0.0378182 -0.0363993 -0.0305021 0.042396 0.0429831 -0.0174849 0.105169 0.0403692 -0.0163014 -0.0489823 -0.0253693 -0.0138889 -0.0238482 -0.100801 0.0184387 -0.00621767 0.129277 0.0641821 -0.00965335 -0.0246911 0.00775183 0.0748134 -0.0473934 0.0464898 0.040907 0.110368 -0.0390899 -0.123554 0.0384592 0.0224376 -0.13982 0.0471313 0.157798 0.145949 -0.00672971 0.107303 -0.0158288 0.0427042 -0.00194201 0.0651341 -0.0187437 0.0864293 -0.0415944 -0.00925744 0.102123 0.0197447 0.0224559 -0.0895174 -0.059259 -0.041037 -0.0680189 0.118168
0.150044 -0.0116046 0.0554134 0.125328 0.0180551 0.037338 -0.0180988 -0.0464363 -0.00369879 0.0462733 -0.0229226 0.0399868 -0.0770808 0.219168 -0.0638178 -0.057711 0.00816299 0.0765908 0.168811 -0.117134 -0.0810327 -0.0492373 -0.0155482 -0.012869 0.0759953 0.053779 0.00442274 0.0579861 -0.044922 -0.0112688 0.0947644 0.0042267 0.00609157 -0.0922874 -0.099875 -0.0679547 -0.0360089 -0.0905215 0.0446652 -0.009556 -0.0352943 -0.0196242 0.143194 -0.0677137 -0.106131 0.00664993 -0.0223813 0.0879577 -0.08714 0.0257114 -0.0841622 0.0577432 -0.108481 -0.0677574 -0.0740058 0.00635223 0.020225 0.0691557 0.020046 0.0476745 -0.0625298 -0.0345218 -0.0116324 0.0123817 -0.0772015 -0.0768766 -0.124321 0.0941058 0.113629 0.0814969 0.10078 -0.103597 -0.11356 -0.0260117 0.0288807 -0.00581251 -0.0748278 0.00673682 -0.122186 -0.0681487 -0.0301675 0.101171 0.0584156 0.00647893 0.0980173 0.149845 -0.100611 -0.084782 0.063776 -0.0197402 0.0367027 -0.0307591 0.0283546 0.0602054 -0.0183475 -0.0153586 0.0345346 0.109352 -0.013417 -0.0395064 -0.00663167 0.103805 -0.0140392 -0.0631654 0.0149454 0.108844 0.118873 -0.0761759 -0.00291488 0.00033842 0.0314782 0.00206105 -0.0721463 -0.0389081 -0.0168138 -0.0989681 -0.0676595 0.0437354 0.161279 -0.0567081 -0.0264898 0.11767 0.0654475 0.176904 -0.0436043 0.008963 0.0476745 0.014964
-0.09327 -0.0365606 -0.0265756 0.0395434 0.0339933 -0.0140891 -0.00519418 0.172223 0.0818311 -0.0726852 0.153178 -0.090453 -0.0447837 -0.0438403 0.0216925 0.169779 0.0986951 -0.0159995 -0.0907167 -0.0113081 0.183064 0.00731577 -0.00563005 -0.125983 0.00840198 0.125448 0.0930014 0.0277388 0.125946 -0.0168493 -0.00954565 0.00883174 0.00136815 -0.0545509 -0.0666789 0.0991049 -0.113216 -0.0127862 -0.0154582 0.104612 -0.00935947 0.0829302 -0.00829986 -0.076976 -0.0580162 -0.0285474 -0.0224806 -0.166292 -0.0378505 -0.131951 0.078329 0.0216929 0.0207645 0.0276092 -0.0291938 -0.00851129 0.055703 0.119202 0.0788377 -0.0919813 -0.0111769 -0.0114285 0.0529236 -0.129192 -0.104402 0.0731207 0.0229397 -0.101642 -0.0705432 -0.00528202 0.00947499 0.0847884 -0.100031 -0.166731 -0.101468 0.0462695 0.0982402 -0.000567377 0.00410316 -0.135428 -0.0391268 0.0298643 -0.0607961 -0.0650943 0.0355833 0.0479556 0.0282641 -0.0201993 -0.0462183 0.0307616 -0.0874075 -0.0166365 0.04444 -0.0281649 0.107285 -0.045795 -0.146276 0.0507132 0.0400334 -0.113105 0.0527907 -0.0482305 0.0405477 -0.0138055 -0.0262956 -0.0495702 -0.154384 0.0896666 -0.00480788 -0.048388 0.026699 0.045313 0.0848449 0.0450663 -0.176726 0.122142 0.0591954 0.0779094 0.00484771 0.0226176 -0.0421146 0.0334758 -0.0521444 0.0336814 0.031068 -0.0138344 -0.0141479 0.0445942
0.0104674 0.082165 0.0649704 -0.0194866 -0.0300772 -0.10035 0.000628439 -0.0888641 0.00822586 -0.0395345 0.0501827 0.0124504 0.030033 0.0855127 -0.0344332 -0.159325 -0.140635 -0.00185193 -0.140895 0.089564 0.0482338 0.0085703 0.0248121 0.0100178 -0.0181714 -0.0454081 -0.0548955 -0.0436701 0.00621954 -0.0275014 -0.095197 -0.0890686 -0.0309626 0.117103 -0.0199798 0.0820371 0.0534979 -0.0190101 -0.0547516 -0.0918679 -0.038446 0.00844001 -0.047677 -0.0306239 0.0777421 0.0851268 -0.0421353 -0.0814554 0.0866573 0.152516 0.0368741 0.0742314 0.0334687 -0.116721 -0.00429751 -0.0085301 0.0885142 -0.0453679 0.0715263 -0.00480799 0.129591 -0.0992835 0.00271389 -0.0898302 0.0309976 -0.072211 -0.018445 0.12379 -0.0495535 -0.0393548 -0.0537648 0.0441694 0.050767 -0.0451402 -0.057178 -0.081866 0.0290618 0.103737 0.0809789 0.0179336 -0.0298428 0.000376622 0.111015 -0.0178672 -0.163599 -0.230421 -0.0871797 0.0493304 0.0233525 0.147783 0.0890614 0.0289429 -0.0106727 -0.0766786 0.0705821 0.0245424 0.032723 0.0777086 -0.110519 -0.00954835 0.1125 -0.0646374 0.042464 0.00404922 -0.0646861 -0.00816499 0.0770834 -0.040396 -0.026272 0.0348137 -0.0339675 0.0307215 0.0676998 0.0250664 -0.168704 -0.0258348 0.0535885 0.0132199 -0.0117771 -0.0746668 -0.0209054 -0.00362562 0.0727798 -0.0241451 -0.063539 0.0929818 0.00407628 0.0134754
0.28989 -0.0926939 0.09274 0.00299168 -0.0376929 0.302988 -0.175961 0.0467184 -0.0390927 -0.20908 -0.0261219 0.214086 0.163162 0.189766 -0.0190033 -0.0113443 -0.196308 -0.025054 0.00368737 -0.0145029 0.35016 -0.118648 -0.0407031 -0.0797335 0.10115 -0.104646 -0.0459651 -0.185683 0.0716584 -0.240291 0.0615164 0.211531 0.0502637 0.236718 0.0711369 0.0695521 0.149495 -0.13302 0.209328 0.25665 -0.190785 0.0620197 0.177568 -0.130211 0.234853 0.301794 0.155031 -0.156264 0.272416 0.0355236 -0.0494804 0.238221 0.00646893 -0.0262434 -0.143245 0.159277 -0.150144 0.00950401 -0.0235747 -0.103702 0.130968 0.242642 -0.0144116 0.192614 0.0312727 0.0543117 -0.258408 0.063007 0.0859716 -0.0282137 0.125779 0.244292 -0.115505 -0.20868 -0.15877 0.0110732 -0.13459 -0.127852 -0.0163694 -0.00281498 0.00932384 -0.021675 0.282298 0.0650136 0.0532679 0.0659297 -0.300139 -0.200527 -0.152455 -0.0191368 0.0914062 -0.0954934 -0.0936987 -0.0406094 0.0761218 -0.152529 0.0703084 0.0369535 0.0766266 0.0366228 0.0710595 -0.23091 0.115875 -0.0920211 -0.0900407 0.0243293 0.267326 0.0152737 0.315121 0.25674 -0.240669 -0.0375058 -0.0877963 -0.0383573 -0.152512 -0.0617364 -0.182939 -0.0534153 -0.127943 -0.154669 -0.00148337 0.2616 -0.11764 -0.0158247 -0.0754295 -0.268141 0.193931 -0.0297337
0.0628789 -0.0624603 -0.00202151 -0.108547 -0.0397303 0.0170912 -0.0735671 0.0350415 0.0215999 0.0430147 -0.0831282 0.0224802 -0.0471103 -0.107627 0.0518624 0.00503167 0.0443772 0.0644413 -0.152315 -0.0509737 -0.196156 -0.000363826 -0.0779345 0.136468 -0.127224 -0.0841976 0.0459163 0.0851001 -0.0621327 0.0670393 -0.049756 0.0335585 0.208692 0.0674855 0.0476525 0.0128744 0.0426904 -0.0393768 0.090253 0.0206284 0.129148 -0.140691 -0.12126 -0.0130457 -0.161973 -0.0659363 -0.0405415 -0.0957013 0.0386421 0.0801667 -0.0311552 -0.0824442 0.0849082 0.141601 0.0485411 0.00487978 0.0350176 0.0384925 0.0357662 -0.14971 0.214239 0.0216956 0.0895345 0.359922 0.128743 0.114598 -0.0028245 -0.0180433 -0.141575 -0.0790159 0.0725615 -0.0632559 -0.148526 -0.0114185 0.0459802 0.0580807 -0.0654601 0.0293769 0.0416062 -0.0208049 -0.0473617 0.0125386 -0.0813089 0.0906473 -0.134168 -0.0196275 0.0474023 0.0885419 -0.0745157 0.0314871 -0.035538 0.0494777 0.0970528 0.07386 0.255916 0.163269 0.0616537 -0.0517462 0.00587956 0.0576155 0.169528 0.118583 0.0834304 -0.0888148 0.0998413 0.0614333 -0.193967 -0.0256863 0.00690646 -0.0811325 -0.0658479 0.0503329 0.0146545 0.180371 0.0197798 -0.153051 0.0581802 0.0112301 0.0791343 0.0572175 0.0211553 -0.0553188 -0.0153836 -0.069349 -0.0305679 0.0662265 0.0739557 0.0838704
-0.0344362 -0.0995821 0.0558079 -0.204427 -0.0745421 -0.0486794 -0.0360385 -0.0125339 -0.0732015 0.0961359 0.0388285 -0.375506 -0.116989 -0.1154 -0.164665 0.308438 0.0834154 -0.0880165 -0.0380094 -0.0812222 0.147985 -0.103243 0.0121335 -0.0727795 -0.251562 0.287002 0.0737582 -0.075918 -0.1006 -0.115931 -0.0469488 0.664418 0.194085 0.327318 -0.0440191 -0.367951 0.156775 -0.0070685 0.516215 0.117922 0.469732 -0.0739293 0.453166 -0.0970776 -0.119302 0.0738046 -0.0319123 -0.00648432 0.0111462 0.0363063 -0.200633 0.483886 -0.0339792 0.27355 0.363443 0.443831 -0.10979 -0.158101 -0.553933 0.308551 0.263366 0.305242 0.369188 0.632599 -0.0339527 0.028682 0.024464 -0.37856 -0.219365 -0.498831 0.089734 0.204187 0.00575534 0.225119 0.627246 -0.13659 -0.128116 0.18495 -0.0758786 0.0376487 -0.0623932 -0.288295 -0.152648 0.870995 0.0262489 -0.0499058 0.188648 -0.115031 -0.0807335 0.0296414 -0.0866894 -0.122747 0.0555138 -0.0365806 0.366699 0.215431 0.28498 -0.0876134 0.0397517 0.0468982 0.675776 0.595345 0.0911108 -0.405578 0.371803 -0.0628605 0.016816 0.138088 0.138008 0.273481 0.196567 0.175863 0.0791708 0.508042 -0.00355221 0.29429 -0.113928 -0.257376 -0.0144014 -0.226723 0.130956 -0.079243 0.131814 0.0505583 -0.0183519 0.119069 0.248188 0.3401
0.0277569 0.0673281 0.0187653 -0.0977117 0.096305 -0.0856274 -0.150704 -0.115224 0.0333603 -0.0282081 0.00653335 -0.0498868 -0.0308687 -0.0152155 0.165242 0.0159855 -0.0158511 0.110224 -0.00512024 -0.00819101 0.0214786 -0.148511 0.131779 0.00217586 -0.0764352 0.000306173 0.0429106 0.10268 0.0371591 -0.142376 0.200496 0.0395556 0.042984 -0.0175257 0.0338737 0.045979 -0.0544093 0.0199615 0.279827 -0.11148 -0.0457767 -0.0719332 -0.0799784 -0.0276655 -0.118652 0.0422297 -0.0291194 -0.11288 -0.126857 0.0885229 -0.0879151 0.0527946 -0.0428078 -0.109145 0.0927364 0.135231 -0.0520699 -0.148662 -0.0234933 0.0856726 0.0676063 0.132077 0.100716 -0.0748048 0.0646806 0.0575535 -0.0487585 -0.121384 -0.0303706 -0.0508883 -0.0632977 -0.0335171 -0.0229809 -0.185193 -0.0643623 -0.00856473 -0.0402566 -0.0481366 -0.00750831 0.0717745 0.0306668 0.134207 -0.014925 0.0705489 0.147601 -0.0251527 -0.168051 -0.090783 -0.0439406 0.018018 0.0700467 0.139402 0.0312744 -0.0779333 -0.0223992 0.0513108 0.10764 0.0295565 -0.0369551 -0.0580632 0.0135518 -0.0540195 -0.0722905 -0.0884538 -0.00274178 -0.0163663 -0.0902575 -0.09604 -0.0204948 -0.045348 -0.125875 -0.0788297 0.0712203 -0.00547629 0.00429465 0.193018 -0.152102 0.0568194 -0.0273223 -0.114435 -0.00386362 0.00814247 0.0287589 -0.15045 -0.0535423 0.0245368 0.0201531 -0.0454013
0.0766778 -0.0600558 0.161616 0.117198 0.0234798 0.0354257 -0.12093 0.0905682 0.124726 -0.0671907 -0.0502126 0.0265848 -0.134958 -0.048005 0.0671365 -0.0501535 -0.0201818 0.0778911 0.0233386 -0.00603575 0.0554698 -0.0852498 -0.0433834 0.0306843 0.103043 -0.0306926 -0.00726604 0.0737996 -0.0843275 0.0189375 0.0692619 -0.0830119 -0.167754 -0.130504 -0.0451186 -0.0107553 0.0656401 -0.0373074 -0.0535256 -0.0511205 -0.000177362 -0.0265411 -0.0400841 -0.0477899 0.0294292 0.0156914 -0.0819937 0.0540386 -0.0207128 -0.0482201 0.000188509 -0.0379512 -0.0598335 -0.0564329 0.0292098 -0.10799 -0.0695976 0.150055 0.215788 0.00166986 0.0606665 0.00816381 0.01901 -0.00632219 0.0362669 0.123197 -0.190746 -0.0343324 -0.0289947 -0.033552 0.0304435 0.0102199 -0.173295 0.0406956 0.0578518 -0.0187104 -0.200773 -0.139188 -0.0111613 0.218549 0.0231973 -0.0185009 -0.133434 0.0436735 -0.080723 -0.0788506 0.110871 0.0424345 -0.0574776 0.0414646 -0.0558146 -0.0269106 0.0229488 -0.00763885 0.0662817 -0.0480822 0.00920943 -0.0622468 0.0137905 0.089576 0.0908201 0.0159486 0.00766259 0.0712902 -0.085916 0.0364332 0.0937639 0.17717 0.0292506 -0.0625877 0.0405551 -0.0633709 -0.0429046 0.108352 0.037413 -0.0364327 -0.0149312 -0.074284 0.0526203 0.0327522 0.0573351 -0.0826533 -0.0176048 -0.0211693 0.0847228 0.0636432 0.0462049 0.0310408
-0.0250751 0.0455695 0.000241286 0.000407325 0.0339646 -0.0224304 0.110565 0.0602324 0.0393179 -0.0176783 -0.106501 -0.0560671 0.103353 -0.0555293 -0.0616206 0.0284848 9.00082e-05 0.056853 0.0246298 0.0679388 -0.0466853 -0.0510559 -0.00888965 0.0881456 0.0954939 -0.0103258 -0.117825 0.0509998 0.0365505 -0.00154043 0.145038 -0.0438605 0.0378402 0.060301 -0.0405566 0.0202755 0.10787 -0.0239014 -0.116915 0.0724695 -0.0495213 -0.100306 0.0266603 0.0551805 0.07951 0.0470274 0.0183924 0.00963991 0.00799135 0.0160705 -0.0508755 0.00320819 0.142687 0.0466723 -0.142373 0.0407385 -0.0199854 0.080857 0.0131177 -0.0424258 0.0347348 -0.0291657 0.0362521 0.229276 0.059574 0.133448 0.0447242 -0.0662304 0.0365221 -0.0163001 0.0144155 0.075591 -0.0546548 0.000994109 -0.00115342 0.033343 -0.0316316 0.0176524 0.0509079 -0.0832806 -0.0106969 0.0368136 0.00581802 -0.026594 0.00517346 0.0900674 0.011109 -0.0871025 0.0195786 -0.145321 0.0411482 0.0774182 -0.0349381 0.0344437 0.0896812 0.044216 0.00457607 -0.0566439 0.012267 0.017688 0.122335 -0.105125 -0.119367 0.0317197 -0.0966152 0.00538555 0.0225382 -0.0652324 -0.0591073 0.0297787 -0.202402 0.180417 0.163119 0.0154333 -0.114605 0.0713394 -0.121988 -0.0359737 -0.124085 -0.0339997 0.0825843 0.112107 0.0576072 -0.00665539 -0.0152116 -0.0273734 -0.0190457 -0.0199667
-0.0708245 0.0257175 -0.0354169 0.109999 -0.0763764 0.0386794 0.0434804 0.0549442 -0.0421913 0.133532 -0.0394178 -0.041562 -0.0918161 0.000175242 -0.0673042 0.0535234 -0.0742092 -0.033265 0.0698214 -0.0501611 0.0520732 0.077088 0.0214232 -0.150126 0.160027 0.0922758 -0.0474073 -0.00589215 -0.00623162 0.0246031 0.0826426 0.0767597 -0.12209 -0.0501816 0.00883122 -0.104048 0.0835024 0.010535 -0.0234083 0.0885032 0.157021 -0.0928948 0.0604674 0.0804193 0.0279326 -0.0112291 -0.0688176 -0.0350533 0.126853 -0.0497813 -0.0129205 0.0331948 -0.0809114 -0.0887199 0.0288006 0.166185 0.0457005 -0.059911 -0.0294185 0.05605 -0.137327 -0.0101648 0.01079 0.0132767 0.0599655 -0.0108517 0.0372499 0.0908581 0.196856 -0.0815705 -0.0114747 0.00422712 0.0861207 -0.00688737 -0.0452828 -0.0519268 0.0744205 0.11925 0.023109 0.11198 -0.0604668 0.0218582 -0.0171791 0.0476404 -0.103025 0.00405527 0.0456618 -0.0287514 -0.0759914 0.0526763 -0.0976285 -0.142546 -0.00251935 -0.0988159 -0.00569235 0.0228056 0.00415355 0.035051 0.0802593 -0.0782722 0.0241268 -0.095576 -0.00853266 0.0418354 0.0541653 0.0341774 -0.017254 -0.060599 0.0356597 -0.0892195 -0.119578 -0.00232823 0.0400109 -0.110902 -0.029789 0.0089414 0.0575701 0.0472082 0.0337476 -0.0229211 -0.0309608 -0.0572236 0.082472 -0.0172567 -0.000828738 -0.0414307 -0.0950826 0.0418255
0.0667656 -0.0312277 0.0374937 -0.0765658 0.0271804 0.0387724 0.0405133 -0.0215351 0.0357572 0.046352 -0.0544565 0.00371332 -0.0107925 0.104049 -0.0254453 0.0485441 -0.0162123 -0.0152488 0.0609889 -0.0498895 0.0630328 0.0216455 -0.0200546 0.0760203 -0.0475554 -0.0616107 -0.0697113 0.0437667 0.0546472 -0.0632854 -0.0701439 -0.0365281 0.185047 -0.00950605 0.0535834 0.0276312 0.0369564 -0.00543968 -0.0507141 0.0859323 -0.0138438 -0.0598643 -0.0148994 0.0106777 0.0908379 -0.0664101 -0.00152761 -0.0564092 -0.0406422 -0.0376059 0.00138657 0.00233348 -0.010598 -0.103389 -0.0577882 -0.0474779 0.00217957 -0.0329582 -0.0330804 0.0613468 0.0576276 -0.0882834 0.0558337 -0.169542 -0.113765 0.0628029 -0.0152134 -0.0249832 0.150503 0.0614294 0.0391114 -0.0494563 -0.0673692 -0.127725 0.022808 -0.15343 0.0135649 0.0313927 0.110465 -0.180845 -0.0108986 0.0631818 -0.0339779 -0.0112788 -0.0643696 0.0160543 0.0181865 -0.033018 -0.0919511 0.0705154 -0.0388768 -0.0607402 -0.0696638 0.0730979 -0.0715278 0.0717068 0.042983 0.0800786 -0.025282 -0.0651052 -0.0171908 -0.0401724 -0.00654148 -0.0401395 0.0422336 -0.0945475 0.127386 -0.0391325 -0.00874996 -0.0494892 0.0749369 -0.0643578 -0.133031 0.130302 -0.088075 -0.0522224 -0.059393 -0.10698 -0.00929825 -0.0533634 0.184331 -0.0807004 0.013027 -0.0694259 0.101799 -0.0754158 -0.096603 0.0062305
0.113674 -0.1138 -0.160884 -0.0022357 0.00678317 0.0677148 0.0252326 -0.0679964 -0.0306623 -0.0573909 0.0111275 -0.104385 -0.0481562 0.0432195 -0.111725 0.145318 -0.00184132 0.117611 0.0387382 0.052392 0.0679128 -0.0758959 0.221409 0.159386 -0.120737 0.0429012 -0.0842275 0.131231 0.00223115 -0.00259893 0.0969943 -0.0926574 -0.071562 -0.163759 -0.0657477 -0.0448707 -0.050519 -0.0254566 0.161855 -0.0604158 -0.13918 -0.073182 -0.0702342 0.109349 -0.0130385 0.0803205 -0.0314628 -0.119698 0.107775 -0.0528141 -0.0117879 -0.00504829 -0.0762714 0.00301222 0.107166 0.106934 0.022357 -0.138973 -0.0810008 0.252536 -0.143722 0.104851 -0.00935362 -0.0595467 0.0414196 0.148312 -0.0692384 -0.211894 -0.118644 -0.115022 0.00411737 -0.0576229 0.0605366 -0.0164971 0.048597 -0.123149 0.0942831 0.0516632 -0.0257304 0.0550242 -0.0641806 0.0869735 -0.039958 0.0738997 0.0809415 -0.0427565 -0.197439 -0.0706469 0.0345679 -0.0376582 0.114277 0.00765438 0.00237579 -0.0104696 -0.176252 0.0907578 0.154531 -0.0993097 -0.0162597 -0.0525812 -0.0291272 -0.124063 -0.0132068 -0.140075 0.0963095 0.0027427 -0.0911151 0.0101921 0.103235 -0.0887919 -0.123245 0.086698 0.091991 -0.111523 -0.0358567 0.0505556 -0.0263305 0.120326 0.0408988 -0.110476 0.0944337 0.040255 -0.0614067 0.104803 0.0687606 0.0389224 0.0741587 0.0636671
0.210764 -0.0677279 -0.0534606 -0.0325298 0.249252 -0.0529858 -0.246067 0.120753 -0.0102726 0.0890898 -0.00859066 -0.185863 -0.102707 0.124319 -0.0655068 0.0511762 -0.039422 0.179292 0.00121999 -0.0825479 -0.121903 -0.089823 0.201647 0.0742812 0.102205 0.0786236 -0.0608381 0.088247 -0.0363368 -0.0382596 0.237732 0.111601 -0.0876365 -0.15362 -0.0245527 -0.0375703 -0.0382218 -0.020185 -0.0580964 -0.0968808 -0.216313 -0.200946 -0.120962 -0.0626364 -0.176737 0.0124561 -0.0800366 -0.0412133 -0.116674 0.229224 0.164893 -0.0588108 -0.0886518 -0.245324 0.0420081 -0.0505239 -0.136623 0.282505 0.00257589 -0.0999486 -0.114331 0.0162127 -0.0125435 -0.238679 0.0675237 0.0183534 -0.000705799 -0.0713345 -0.285244 0.0795052 -0.0362238 -0.246972 -0.0500338 -0.160108 -0.107792 0.0780228 -0.0618519 0.0841763 -0.186233 -0.0707472 -0.23978 0.3068 -0.0921679 -0.0355691 -0.0532843 -0.105919 -0.045699 -0.145171 -0.0395256 -0.0272654 -0.022548 0.0844907 -0.00119631 -0.00491068 -0.212369 0.0406647 0.0471224 -0.0233675 -0.00118586 -0.0750498 -0.181291 -0.0720805 -0.115525 -0.0622031 -0.129258 -0.079882 -0.195581 -0.160053 -0.248895 0.00207924 -0.000478633 -0.187108 -0.0760995 -0.073844 0.0836632 -0.0630254 0.0755566 0.0874492 -0.00882022 -0.0378753 -0.138574 -0.24269 -0.00604331 -0.0242961 -0.124984 -0.0342582 -0.187187 0.0306465
0.11001 -0.0765207 0.0457085 -0.189184 0.380826 -0.106633 -0.16408 -0.259381 0.055322 0.196541 -0.092835 -0.179655 0.124137 -0.133223 -0.013103 0.225266 -0.13994 0.223696 -0.0157246 -0.0978618 -0.0353044 0.119548 0.402667 0.250893 -0.0201043 0.283066 -0.0294852 0.0479621 -0.172888 -0.349854 0.447203 0.154471 -0.00892407 -0.0675101 0.0480306 -0.383363 -0.188328 0.0979553 0.451226 0.283686 -0.0564161 -0.227941 -0.140481 -0.10712 -0.0471036 -0.145069 -0.0287424 -0.0262327 -0.164239 -0.0195359 -0.0611332 -0.00077162 -0.140653 -0.0230931 0.45362 0.307438 -0.0475531 -0.0120172 -0.0909356 0.292143 0.101244 0.163262 0.458979 -0.0506763 -0.108547 0.0314529 0.0450371 -0.265506 -0.201597 -0.21624 -0.0803586 0.00239661 0.0269704 0.0240141 -0.0992118 -0.0522096 -0.0130111 0.212734 -0.0898464 -0.0436345 -0.0311498 -0.082498 -0.224543 0.338089 0.16174 -0.0932071 -0.151927 -0.129885 -0.116181 -0.00150771 -0.0763333 0.21142 -0.0334012 0.175243 -0.111551 0.231816 0.220008 -0.0957239 0.0229951 -0.0233948 0.18949 0.129551 0.00661197 -0.196802 0.340911 0.0645469 -0.0795314 -0.0401664 -0.0414398 0.306657 0.066004 -0.0573845 -0.0659301 0.0282598 0.190265 0.0957187 0.054517 0.124428 0.065549 0.0439998 0.095115 0.220544 -0.0120227 -0.0470379 0.0536018 0.0661761 -0.179278 0.0415937
0.138646 0.0565994 -0.353602 0.0600626 0.176965 -0.0665287 -0.149408 -0.0935037 -0.131936 0.276062 -0.059168 0.0230438 -0.0945712 0.225246 0.0537704 0.00743582 0.00551588 0.180838 -0.0443199 -0.024663 0.19626 0.132225 0.299191 0.0793239 0.0718175 0.181737 -0.00156474 0.0822483 -0.0143148 0.0244553 0.168087 -0.0187208 -0.160455 -0.0381541 0.043859 -0.0832322 -0.00751052 -0.0785323 0.334605 -0.0966528 -0.214124 0.0841191 -0.119615 -0.126767 0.00332206 -0.0620221 -0.105529 0.170473 -0.167455 0.0287152 0.00266264 0.0606007 -0.147744 -0.148065 0.0190244 0.308629 -0.0609863 -0.000785747 0.0785761 0.210279 -0.061336 0.339621 -0.0312333 -0.172236 -0.114187 -0.119701 -0.0809176 -0.0157936 -0.0570618 -0.0189184 -0.151457 -0.0505176 -0.0655468 0.0734732 -0.0496588 -0.0241121 0.00979155 -0.0529175 -0.336826 0.0207668 -0.0361871 0.239937 -0.0192401 0.153794 -0.0750771 -0.147948 0.0211344 -0.0471014 0.0246802 -0.035309 -0.0725793 0.284122 -0.0653481 0.142218 -0.00458379 0.00742911 0.247468 -0.0871911 -0.237252 -0.0108021 -0.0795178 -0.110146 -0.177218 0.182839 -0.00259936 -0.127441 -0.12101 -0.0935999 -0.147672 0.0366603 -0.0904356 -0.241996 0.0381382 -0.358389 0.0564096 0.333833 0.0340912 0.332846 -0.0245579 0.00904767 -0.064952 0.29336 -0.0874953 0.00998029 0.0210043 -0.296874 -0.29008 -0.117037
0.174502 -0.0497108 -0.0415157 -0.0452384 1.12103 0.0103221 -0.0273922 -0.142068 0.0092882 0.116177 0.0449122 -0.381262 0.662604 -0.00613426 0.0499749 0.42802 -0.0239311 0.21938 -0.0909471 0.0961594 -0.0764667 -0.241374 0.781854 0.315972 -0.0776484 0.114911 -0.0374034 0.121304 0.0215301 -0.467984 0.161602 0.0172526 -0.0817852 -0.0949804 0.350506 -0.374707 -0.14239 0.331902 0.430296 0.341285 -0.101147 0.129599 -0.142423 -0.157589 0.0426774 0.137829 -0.177681 -0.0507801 -0.105348 0.106205 0.624951 -0.149097 -0.0448365 -0.147337 0.414343 0.319495 0.220201 -0.237642 0.409671 -0.229182 0.191762 0.281141 -0.0377562 -0.231983 -0.166577 0.198533 -0.0858406 -0.189482 -0.393039 -0.250495 -0.152594 -0.01034 0.0194802 -0.251842 -0.119886 0.00438869 -0.0189087 -0.0454001 -0.0462425 -0.0548222 0.071257 0.173801 -0.467 0.186691 0.0445009 -0.0531791 -0.381077 -0.226128 -0.0272466 0.0839729 0.0299744 0.566951 -0.011458 0.383267 0.0114995 0.399819 0.389255 0.0540469 -0.090264 0.0224803 -0.11602 -0.0209584 -0.0551215 0.151663 -0.0573102 -0.184681 -0.110416 0.0155952 -0.110765 -0.07373 -0.0988714 -0.294353 0.0311261 -0.153803 0.492043 0.0661541 0.0236977 0.250943 -0.111504 -0.221005 -0.135691 0.708673 -0.0286266 -0.0852737 -0.0999464 -0.350198 -0.14756 -0.261711
0.00054891 0.077235 0.0971907 -0.0407841 0.0380015 -0.0377188 0.0270364 -0.0491038 0.117902 -0.00970673 -0.00172014 0.0208746 -0.0328178 0.0474097 -0.0340128 0.168864 -0.0922662 -0.108963 0.0762971 -0.107927 0.157905 -0.0271638 0.128524 0.0957798 0.0796832 0.0913299 0.0253451 -0.00144802 -0.0676799 -0.114911 -0.0729452 0.00915794 0.104936 -0.090877 -0.0606466 -0.0195916 -0.0567559 0.105433 0.126455 0.0144859 -0.000246901 -0.141879 -0.0608175 0.000407892 0.00899926 0.0144803 -0.0741147 0.0383172 -0.091601 -0.143748 -0.0183954 0.126881 -0.0309834 -0.122322 0.111868 0.304533 0.046443 -0.09163 -0.122359 0.0601128 0.0935168 0.178013 0.0832799 -0.0741817 -0.0104481 0.0220321 -0.0579901 0.0267381 -0.11512 -0.12045 -0.039816 -0.000982716 0.0401819 -0.106746 -0.125053 0.0266258 -0.0956678 -0.0731594 -0.067041 0.0119689 -0.0206023 0.210918 -0.135592 0.249474 0.00231611 0.0622713 -0.0644969 -0.0757385 0.0852611 0.052082 0.0325141 0.223199 -0.0328118 0.208871 0.0599308 0.145067 0.242355 0.0836917 -0.0307964 0.00156977 -0.0615295 -0.0509688 -0.0610473 -0.0483876 -0.00440077 -0.165608 -0.111207 0.0371135 0.0603238 0.0886991 0.0578625 -0.204426 0.0195176 -0.0895284 0.027434 0.141191 -0.157779 0.0371163 -0.0759503 -0.162026 0.0812239 0.0326971 0.055663 0.030929 0.066703 0.0245978 0.0479579 -0.0139913
0.0949307 -0.0415622 -0.0410456 0.0469622 0.0271862 0.104558 -0.00492705 0.0179665 -0.0116443 0.0582272 0.0658026 0.0497816 0.128985 0.059077 -0.0214791 -0.221048 0.108279 -0.168137 -0.0204612 -0.135936 0.126347 -0.0856954 0.0285316 0.0624215 0.0741839 -0.0723929 0.0543577 -0.0240175 -0.0224119 -0.10763 0.152573 0.0289074 -0.165616 0.0189627 -0.126187 0.0470974 0.0872788 0.0289026 0.0932188 0.000903958 -0.00206058 0.0851846 0.0831096 0.0241371 0.0270651 0.160051 0.0843936 0.0212152 0.206145 -0.121415 -0.0689287 -0.141924 0.00306967 -0.0138835 0.0300037 0.193273 0.0334471 0.0883964 -0.0623085 0.0168137 -0.0836609 -0.0792112 0.0409256 0.0241421 -0.0508913 0.0796232 0.0368128 -0.130643 0.153764 0.0978243 0.0457462 0.0581741 0.0170528 0.0770035 0.0400062 -0.0734754 0.0145789 -0.0984445 -0.141645 -0.00320464 -0.0493199 0.139357 0.0528893 0.0378926 -0.100968 0.0369808 -0.162897 0.0350243 -0.0295307 -0.0316627 0.0611712 -0.0913033 -0.0210383 -0.10928 -0.0623135 -0.0127814 0.15584 -0.0278844 -0.0488912 0.147137 0.225859 -0.0453576 0.0715588 0.0167538 -0.207988 -0.169413 0.0337377 -0.0018105 0.084609 0.075581 0.185888 0.0857534 -0.119496 -0.22808 0.00316174 0.156582 -0.0672914 -0.0720698 -0.0979746 -0.134846 -0.198552 -0.0342435 -0.121602 -0.143094 0.0528585 0.00500656 0.0221904 0.0676183
-0.0241144 -0.0692055 -0.142442 -0.055444 0.267941 0.0128937 -0.0196264 -0.0369255 -0.0530253 0.0737034 -0.0306015 -0.0392247 -0.10064 0.0196624 -0.0367672 0.036848 0.0913759 0.256644 -0.0631131 0.118091 0.00601279 0.078572 0.0557277 0.172853 0.168602 0.307587 0.107421 0.127 0.0070428 0.0320023 0.0524452 0.0933499 -0.0785991 -0.0862084 0.0684996 -0.107551 -0.0277593 -0.00786513 0.205354 -0.179914 -0.000329017 -0.106792 -0.114555 0.0901993 0.0485355 -0.0216233 -0.0808925 -0.1301 -0.0729901 -0.00355282 -0.0408227 0.0208584 -0.0845049 -0.139101 0.155906 0.23708 0.132786 0.00654954 0.0682057 0.189543 -0.107486 0.145548 0.0162157 -0.0405345 0.0568407 0.0826785 -0.0435674 -0.0557666 -0.014406 -0.142052 0.0931601 -0.100808 -0.0485698 0.0980627 -0.1174 -0.155601 -0.0531172 -0.115217 0.00366894 -0.0661032 0.00958441 0.141431 -0.132535 0.0993276 -0.0660066 -0.0294872 -0.0401517 -0.0783323 -0.0213968 0.05345 0.16569 0.228026 -0.0962717 -0.0250741 0.105473 0.00543197 0.0905919 -0.00988953 -0.0180878 0.046357 0.00424222 0.0077965 -0.0538625 -0.102734 -0.0100583 0.0948758 -0.0752566 0.0316139 -0.0371469 -0.0249092 0.0518377 0.0314883 0.0315754 -0.0186972 0.0152655 0.167133 0.0946938 -0.0557477 -0.0912605 -0.0776901 0.162926 -0.128987 -0.0939277 -0.152511 -0.173291 -0.0585309 -0.0396202 0.178189
0.111211 0.14487 -0.0290522 0.0227646 -0.0552647 -0.000778725 -0.00253998 -0.00121096 0.120564 0.0627872 -0.0435488 -0.127533 0.0790718 -0.0520794 -0.144775 0.0574391 -0.0584673 0.0318945 -0.0106018 0.0178326 0.00310468 -0.0182254 -0.0440719 -0.0235673 0.000416476 0.0675322 0.0154458 0.010806 0.023816 -0.00894983 -0.00992618 0.0484044 -0.0951062 0.122104 -0.00892813 0.0851308 0.0044695 0.0170223 0.0447805 0.0768596 0.032411 -0.0647977 -0.0293694 0.02949 -0.135144 -0.0398136 0.0228411 -0.0647926 0.0389958 0.0290763 0.0289021 -0.0408622 -0.0956846 0.0566222 0.0397087 -0.0162109 -0.0226564 0.129033 -0.0183947 -0.0794915 0.040365 -0.0920778 -0.124221 -1.66721e-05 -0.109658 0.135046 -0.0132803 -0.0593816 0.120466 0.12928 -0.094077 -0.142348 -0.0617307 -0.0773661 -0.032431 -0.0729833 0.0539094 -0.0503159 -0.149724 -0.0660911 0.0383884 -0.0669111 0.0516467 -0.025133 0.0434894 0.150197 -0.0319858 -0.0186394 0.0882574 0.0112532 -0.141604 0.0595755 0.104129 -0.0474382 0.0530675 -0.146542 0.118763 0.100265 0.132748 0.0192739 0.122087 0.0253208 -0.0615759 0.054517 -0.0629559 0.0669348 0.0590733 -0.0372643 -0.0106542 -0.106694 0.102837 -0.00901946 -0.0448179 -0.10857 -0.0114658 0.106696 -0.0380265 -0.0141924 0.0170057 0.197197 -0.0176135 0.0375225 0.0160078 0.0516058 0.13078 0.0765663 -0.0517679 -0.00465643
-0.0580722 0.0688734 0.00391934 0.05601 0.00732066 0.0461782 0.0928397 -0.0648041 0.0590589 -0.0480159 -0.0449234 0.0322783 -0.000160575 -0.0356474 -0.00755646 -0.0379273 -0.00369187 -0.102208 0.0799685 -0.0661633 -0.132063 -0.00380652 0.0843136 0.0273485 0.00529768 0.142924 -0.0108497 -0.00158555 -0.149978 0.042376 -0.0910232 0.0491691 0.0619871 0.00467407 0.17073 0.045016 -0.000580894 -0.0593528 -0.0349696 0.0161778 -0.0267485 -0.0931021 -0.195302 0.0413716 0.0604017 -0.0894164 -0.134564 0.0208835 0.026885 -0.0336799 -0.0218655 0.0466715 -0.0510378 -0.0587178 -0.101686 0.158629 0.019359 0.0710377 -0.126157 -0.0544354 -0.00705401 -0.0247657 0.00944949 -0.0705221 0.0170416 0.0694181 0.0853097 0.142723 0.0611396 -0.0910149 0.149019 -0.0397114 0.0207472 0.0296437 -0.0941897 0.0816365 -0.0624481 0.0576965 -0.0825543 -0.0298261 0.0846166 -0.0256031 0.0924862 0.00982873 0.0534827 0.0891964 -0.033578 0.0832033 -0.0432905 -0.0265618 0.144164 0.0409735 -0.012968 0.0235774 -0.0386646 0.00406566 0.0911191 -0.0258291 -0.0423101 -0.0654781 -0.0633269 0.066727 0.073043 -0.034298 0.0380099 -0.13361 -0.0497637 -0.0202683 -0.00519102 0.0103214 0.00704428 0.109805 0.036641 0.179061 0.0819028 -0.0604959 -0.0154549 0.0602859 -0.033329 -0.142043 -0.117922 0.0103047 0.0254326 0.202201 -0.0124103 0.079894 -0.000268658 0.0239732
-0.0708298 0.0535674 -0.161267 0.00302371 0.00327831 0.0922943 -0.0539812 -0.0548513 -0.0459929 -0.0218426 0.0643344 -0.0773372 0.0643152 0.124333 0.0299243 -0.0247306 -0.0617141 0.0678995 0.105687 0.0306994 -0.147686 -0.0182522 -0.0142206 0.0132258 -0.00679079 0.0755136 -0.143036 -0.0265493 0.0627935 -0.0417368 0.0144093 -0.0166777 0.16728 -0.0763219 0.125017 0.00563196 0.0356581 0.0192531 0.0953992 0.062832 0.0556942 -0.0215628 0.0598587 -0.0190803 -0.0707725 0.0516585 -0.055259 -0.164127 0.0361521 0.0710721 -0.00877321 -0.125481 -0.145255 0.108164 -0.0443008 0.00406666 0.13491 0.0745154 0.118369 -0.0272167 0.12537 -0.0421275 0.0915344 0.0109606 0.0137694 -0.0162146 0.0500959 0.0172666 0.0184053 0.0162967 0.0671222 0.0987533 0.00117155 0.0172418 -0.00342636 0.0115157 -0.0539148 -0.0277597 0.144922 0.00747178 -0.0339348 -0.00107715 0.0663774 0.0499602 0.0548108 -0.0444837 -0.0475807 -0.0396309 -0.0172604 -0.0305463 0.0967321 0.00361247 0.00873971 0.0685564 -0.0760031 0.10642 -0.0363635 -0.067096 0.0280084 -0.100882 0.076962 -0.0417566 0.0987068 -0.0682952 -0.0740855 0.0373507 0.0331637 0.0693233 0.0972812 0.0796465 -0.00705347 0.048226 0.0480699 -0.0031973 0.110051 -0.0270427 0.0999084 -0.0827112 0.0758061 -0.148467 0.102969 0.112818 0.0456345 -0.127113 -0.0438581 0.00790302 0.0369285 0.0243433
0.0672795 -0.0116883 0.115272 -0.135569 0.0642351 0.0078732 0.0117362 0.168551 0.00479263 0.0841265 -0.0684324 0.0108901 0.027228 -0.0348619 0.0541213 -0.0467887 0.0964797 0.00519687 0.095394 -0.0684202 0.00879822 0.100876 0.116432 0.0516358 -0.0522999 0.00510653 0.0132234 -0.111663 -0.115708 0.103544 0.00184977 -0.0408834 0.0224768 0.00654428 0.0470895 0.144464 0.053144 0.11855 -0.0198624 0.0112248 -0.159193 0.139922 0.0874646 -0.126419 0.0526486 -0.0778044 -0.0327952 0.0510113 -0.0468439 -0.0318012 0.0263562 -0.033793 0.0645322 0.128219 -0.0920517 -0.00904465 0.0274427 -0.0174568 0.00923083 0.024305 0.0173349 0.0566008 0.0334633 0.0679268 0.0503465 0.0601308 0.0869572 0.0405703 0.0352502 0.0594258 -0.0292908 0.110428 0.0956603 -0.0572791 0.0490542 0.0829028 0.054271 -0.107775 -0.0813458 -0.0532194 -0.10494 -0.114163 -0.027369 -0.0903418 0.201931 0.0962079 -0.0133694 -0.0782726 0.0258398 -0.0609082 -0.0579562 -0.00684118 0.0678667 0.0632398 -0.170234 -0.0825185 -0.0323912 -0.0251988 0.0831092 -0.0403403 -0.0245661 0.0332882 -0.0290641 -0.0301271 0.0457126 -0.0989105 -0.00848287 -0.0316119 -0.0554864 0.0486252 -0.0281279 -0.0125607 0.127044 0.0986177 -0.0337275 -0.173581 0.0149446 -0.00272928 0.11535 -0.0716149 0.035857 -0.0364362 -0.12615 0.0519346 -0.153825 -0.023476 -0.123929 -0.0374129
0.0173199 -0.137745 0.0360559 0.0339827 -0.0588359 0.0697302 -0.0209757 -0.124979 0.0367828 0.0427395 0.00988215 0.166406 0.0100375 -0.0962258 -0.0126036 -0.00768129 -0.0363345 0.0466015 0.045694 0.0596136 -0.000627164 -0.0726938 -0.0708194 -0.0986915 0.10615 0.110408 0.024921 -0.0755449 -0.00290573 -0.073643 0.0472889 0.0308959 -0.0121162 -0.07745 -0.0680845 -0.108923 -0.0272875 -0.0435411 -0.0689431 -0.0097989 -0.00373701 -0.0404207 -0.0093417 0.0628628 -0.0243753 0.0405173 -0.0810883 0.012012 0.162376 -0.0309206 -0.152672 -0.0529668 0.020508 -0.0412175 0.0170497 -0.00369671 -0.0384357 0.0771716 0.128016 0.0125839 -0.0594492 -0.0347686 0.0885243 -0.0696178 0.0247694 -0.184566 -0.0530374 0.0978377 -0.0405781 0.189695 -0.0492215 -0.110304 -0.184856 -0.0210492 -0.0498939 -0.0299463 0.095534 -0.110576 0.0142671 0.0421434 -0.0164806 0.0321365 0.00236751 -0.00330863 -0.0191483 0.0345266 -0.0290028 -0.0422203 0.0888269 0.0327327 0.0458706 -0.0456974 -0.054841 0.0589209 -0.0442787 0.0828205 -0.128834 -0.113586 -0.103865 0.139212 -0.0559967 -0.11256 -0.00993877 0.0358534 -0.014878 0.0718272 0.0205033 -0.0378784 -0.00113335 -0.0351426 -0.0255776 -0.0480951 -0.0454942 -0.0145361 -0.0615372 -0.0278874 0.0294574 -0.0194522 0.0546291 -0.0398019 -0.0974526 0.0246955 -0.0438897 -0.0122502 -0.241336 -0.0538264 -0.0667967 -0.0634282
-0.00156915 0.0648048 0.0598508 0.067209 0.0951868 -0.122707 -0.0858298 -0.0320268 -0.228125 0.0761176 0.0618969 -0.0495004 0.00437842 0.0966674 0.0310149 0.0980563 0.0479555 0.0757508 -0.0443673 0.0597282 -0.000389468 -0.142894 0.0157029 -0.027712 0.048562 0.0641579 0.0871257 -0.0670296 0.02497 0.160336 -0.0215515 0.0912197 -0.0413337 0.0119067 -0.0147088 -0.0181034 0.0640536 -0.010042 -0.0846522 0.132005 -0.00995145 -0.0286333 0.0362543 -0.0529741 -0.023534 0.000945965 -0.0257074 -0.0542522 0.0638978 0.0670405 0.0136432 0.0297728 0.0220754 0.0125118 0.10616 -0.0550358 -0.0725328 -0.0483646 -0.0325287 0.039513 0.09008 0.127 -0.0939448 -0.0503086 0.0273184 -0.307641 0.00299918 -0.0196995 0.0986939 0.109675 -0.0632844 0.0235734 0.0810673 0.0353738 -0.0348223 -0.0768167 0.0329431 -0.043817 0.145514 0.0245956 0.0374639 0.0186642 0.0458131 -0.00926288 -0.035075 0.00754642 0.043177 -0.000251745 0.0193483 -0.0379753 0.0688335 -0.0574683 -0.116493 0.00325119 0.0664387 -0.000160338 0.0824443 -0.0162083 -0.0730094 0.0194412 0.0398544 0.0282984 0.0838612 0.0785529 -0.201145 -0.0402132 0.0636376 0.0180002 -0.131061 -0.0769845 -0.0341632 -0.11132 0.0593857 -0.0879489 -0.0780405 0.16487 0.130517 -0.0209142 -0.109122 -0.0116493 -0.0337132 -0.0666801 -0.143778 0.0316752 0.043578 -0.185067 0.0497175 -0.0816074
-0.0315133 0.00859864 -0.0811395 -0.0928587 -0.0523863 -0.00425002 -0.0792056 -0.0197648 0.136018 0.00673109 0.00982121 0.0101883 0.0629062 0.0234188 0.0579107 -0.0340083 -0.0524843 -0.0753699 -0.0819349 0.094216 0.110847 -0.0367669 -0.0813148 0.0308425 0.0109953 0.0478075 -0.0589838 0.0320951 0.211685 0.0537407 0.094563 -0.0211103 0.00745007 0.0151369 -0.0742056 0.134063 -0.017269 -0.0356752 0.0412011 -0.0415124 -0.00961482 0.0573393 0.036643 -0.0433916 -0.00150217 -0.0663268 0.0454775 -0.0479486 -0.0490931 0.0129666 -0.0651924 0.0609027 -0.0562664 -0.0179783 0.0148533 -0.0517388 -0.0634729 0.112875 0.0122372 -0.088649 -0.100702 -0.0495822 -0.0248088 -0.0160563 -0.0129416 -0.0461175 -0.0131496 -0.085374 -0.0118742 -0.0133535 0.0141132 -0.0691142 0.0353036 -0.0951195 -0.00984509 -0.126527 0.0026891 0.124155 -0.0728064 0.00733566 -0.0908245 0.0524079 -0.048235 -0.0285188 0.0478667 -0.0428649 0.00299145 -0.143621 0.137665 0.0359902 -0.107431 -0.050806 -0.000699469 0.0365984 0.00487474 0.0141419 0.0399989 -0.134987 0.0609977 -0.0118455 0.0851573 -0.0241674 0.126077 -0.0645102 -0.0940561 -0.0965692 -0.0321738 0.0487067 -0.0525792 -0.0620271 0.0640514 -0.0256333 0.0042638 -0.146814 0.0276275 0.00819804 0.24103 -0.0235 0.0275107 0.14582 -0.0342877 0.112978 -0.0827083 -0.027537 0.105144 -0.050605 0.10322 -0.0247354
-0.0685697 -0.0520684 -0.169507 -0.00138853 -0.000332598 -0.0163926 0.0327584 -0.119322 0.170053 0.0205022 0.0332452 0.092151 0.0269771 -0.0767792 0.0216245 -0.0207192 -0.0144941 0.0612996 0.000741995 0.126434 -0.0603145 0.0995077 0.132385 0.0987319 -0.154393 0.0960734 -0.0305423 0.0961481 -0.0355496 0.00886877 -0.00227531 0.0551198 -0.0273363 0.0186247 0.0204786 0.0118622 0.0082797 0.110053 -0.0821712 -0.0567283 0.0132173 -0.00447614 -0.0222547 0.00857857 0.0290315 0.106182 -0.112991 0.022414 0.00371006 0.238657 0.0839292 0.0310141 0.154554 -0.0935995 0.199175 -0.0590931 -0.0242063 -0.151639 -0.0329827 -0.0432879 0.130912 -0.0381329 0.00300391 0.0259855 -0.0867842 -0.00398507 -0.101515 0.04825 0.0451699 -0.0367362 -0.161228 -0.0398759 -0.0631993 -0.0616615 0.0568671 -0.115576 -0.033618 0.116477 0.137506 -0.0235013 0.0479061 -0.099828 0.0119776 0.034885 0.00548009 -0.0611809 0.0445819 0.115424 0.0404813 -0.109313 0.01799 0.0474527 -0.118069 0.0235235 -0.0317215 0.0781437 -0.0515941 0.0810868 0.035139 0.112286 0.0585679 0.0681904 -0.0671128 -0.00420708 -0.0453793 -0.145365 -0.0359638 -0.120462 0.0974068 -0.0455212 -0.0314077 -0.140082 0.127703 -0.0679637 0.0878775 -0.0573141 0.0910068 -0.134084 -0.0495503 0.0524751 0.0471441 -0.050773 -0.0730557 -0.174434 0.0114305 -0.0939401 0.121306 0.0656543
-0.0591669 -0.00771905 -0.0956166 -0.0137148 -0.029863 -0.123455 0.00624595 0.158078 0.0157538 -0.034733 -0.040496 -0.0652813 0.000667754 0.00535711 -0.0311937 0.00639114 -0.0623309 0.0707388 0.0809655 0.0732182 0.0529956 0.0229656 -0.0534863 0.0047159 0.0853401 0.00830612 0.0428078 0.0782852 -0.0240102 -0.0553288 -0.00409298 -0.0370666 -0.0254962 0.0130025 0.0786824 0.00210042 0.0175609 0.00768967 0.0173109 -0.0820195 0.0580098 -0.00500091 -0.0448021 0.0870101 0.0253937 -0.0647483 0.0392541 0.0829545 -0.0757263 0.0871867 0.0327616 0.0478131 -0.0427086 -0.0761162 0.0385037 -0.160521 0.0969392 -0.155001 0.076756 -0.156436 -0.0108986 -0.0462942 0.0769041 0.0869831 -0.0367256 0.0960969 0.0556341 0.0514375 -0.0166843 0.0535993 -0.0947238 -0.0060527 -0.0460075 -0.177677 0.0177839 -0.0797167 0.0368514 -0.0288881 0.148012 0.0233375 0.013377 0.0298055 -0.0794354 0.0429099 -0.0628922 -0.00455878 0.101243 0.120092 -0.0426979 0.0981347 0.0384284 -0.0503592 -0.0174684 -0.109061 0.0398573 0.0127007 -0.0953372 -0.0395666 -0.182641 -0.101186 -0.0575766 -0.00146335 -0.0139658 -0.0240667 -0.179368 0.242664 0.0156726 -0.0546217 0.101973 0.0045784 0.0219118 0.0848968 0.0794316 -0.0766281 0.0722813 0.0129933 -0.102915 -0.0168309 0.0278508 -0.0605283 -0.0137572 0.14448 -0.0380961 0.000124078 0.0244236 0.0487447 -0.0122834 -0.107659
-0.0771134 0.0055232 0.0421305 0.0385616 0.0995209 -0.0627182 -0.0463062 -0.0511964 0.0891994 0.184207 -0.0396685 -0.0706846 -0.163979 -0.0150706 -0.165966 0.0303122 0.0196389 -0.0194519 0.0359543 0.0428898 0.123448 -0.0680013 0.0959205 -0.0036198 0.00216393 0.0337178 0.173835 -0.0701039 -0.0833075 -0.0373505 -0.0253638 -0.0551808 -0.00722471 -0.0425675 0.0628361 0.0215079 0.106155 -0.0730976 -0.0163415 0.0258296 -0.0982426 -0.0129854 -0.0605602 0.0130432 -0.0359484 -0.0376986 0.141766 0.066299 -0.0275677 0.0418172 -0.0210705 0.0228334 -0.0161602 0.083027 -0.0390726 -0.0319505 0.0546817 -0.038839 0.00202532 0.0424442 -0.066283 0.0197521 -0.12273 -0.0100003 0.102442 0.0745812 -0.121911 0.0537405 -0.0451195 0.0498077 -0.0401866 0.0175677 -0.0894985 0.0435269 0.158311 -0.0255225 -0.0898023 0.0220442 -0.0219018 -0.0341373 -0.0509684 0.0523539 -0.0119032 0.108816 -0.0666537 -0.0918559 -0.000772516 -0.0570217 -0.0829106 -0.0905282 0.0214877 0.0316967 0.0979538 0.00945019 -0.0191566 -0.170379 -0.0674717 0.026254 0.0907586 0.0104892 -0.0256034 0.0769169 -0.0291831 -0.0945682 0.0262059 0.0640093 -0.010305 0.0825851 -0.0258502 0.188022 0.036034 0.0193831 -0.000280133 -0.0149095 0.0350986 0.0324758 0.00460232 -0.0146882 0.0203385 0.0291106 0.0661038 -0.0139098 -0.0740533 0.0509743 -0.0118178 0.0280609 -0.0829516 -0.122677
0.0666432 0.0815661 0.0532101 -0.00258158 -0.0152719 -0.139405 0.0958592 0.0111288 0.0406298 0.0190949 0.0419572 -0.0637107 -0.133926 0.112917 -0.0683746 0.030963 0.042328 0.0631556 -0.00123313 0.0645853 -0.079365 0.0584898 -0.0118532 -0.0515681 0.110273 0.00298776 0.0389569 -0.126087 0.145204 -0.0652555 0.090427 -0.0460808 0.0834416 0.0188449 -0.116328 -0.0350512 -0.131885 -0.0804883 -0.114976 0.0391329 -0.0425315 -0.0749952 -0.10433 -0.0862538 0.027057 0.066933 -0.0860758 -0.259268 -0.0303651 -0.0476468 0.118325 0.0611697 -0.0217064 -0.0525823 -0.0808784 0.13059 0.0177477 0.0036634 -0.113204 0.0753113 0.041696 -0.034949 0.135966 0.172616 -0.0230785 0.0545791 -0.0958534 -0.0197054 0.159663 0.161374 0.136293 -0.0353428 0.0668049 -0.0727398 0.116017 0.0612618 0.0514643 -0.102086 -0.0388887 -0.0541473 -0.025076 -0.0227979 -0.0427699 0.0972955 -0.0278316 -0.0261962 0.00410281 0.0452323 0.0541547 -0.0771975 0.0200202 0.132189 0.12032 0.0562179 -0.101495 -0.0968387 0.0488238 0.0680895 -0.0217978 -0.00234448 0.0850682 0.0444704 0.0926429 -0.0216245 0.0735088 0.0585852 0.0561865 -0.0407156 -0.0333278 -0.0109399 0.0945678 0.0212085 0.0600708 -0.0301994 0.0520738 0.096715 -0.0714197 -0.107593 -0.0195267 -0.170862 -0.0351881 0.0586046 -0.00308741 -0.008889 0.0917751 0.0627003 0.0199827 -0.135865
-0.0672233 -0.0240155 -0.0259094 -0.0528003 0.0504467 -0.0312313 -0.092907 0.0104886 0.104413 -0.0307071 -0.00714789 -0.0457267 0.109113 0.072963 -0.016161 8.68705e-05 -0.024173 0.000307074 0.0263903 0.0656696 0.0208617 -0.0489793 0.0853482 0.0765435 -0.107351 0.101955 -0.0530294 0.242854 -0.116903 0.0650824 0.250397 0.0179947 0.0317539 -0.0125409 0.0297038 -0.193922 -0.0470371 -0.04693 0.177791 -0.0506699 -0.0797147 -0.184685 0.0640786 -0.0360996 0.0353776 0.159796 -0.200212 0.0563488 -0.112591 0.000838675 -0.123812 0.0762846 -0.141298 0.107884 0.248439 0.151688 0.0155876 -0.00155729 -0.0203912 -0.162149 -0.208053 0.277419 0.0382355 -0.0397545 0.0522323 0.0490246 -0.0227923 -0.129165 -0.165447 -0.117656 -0.0172691 -0.0454405 0.0105576 -0.117353 -0.100552 -0.123399 0.069355 -0.0550286 -0.00596751 -0.045513 0.00588935 0.0999137 -0.112054 0.10929 -0.0439537 -0.0153959 0.0868969 -0.0379285 -0.00258267 0.0596957 0.131276 0.0936031 0.0604009 0.114741 -0.268387 -0.00830809 0.111402 -0.0229969 0.0659165 0.101015 -0.0676889 -0.0279855 0.0844316 -0.0459027 -0.011021 -0.0767062 0.0817589 -0.106509 0.115853 0.0850489 -0.113164 -0.0493629 0.189423 0.0131682 -0.0182179 0.232404 -0.0433602 0.0172665 -0.0931327 -0.213871 -0.0998521 0.0937193 -0.0650129 0.0380536 -0.0292845 -0.0823167 -0.0362636 -0.0603864
0.131822 -0.0123485 -0.0697371 0.0498734 -0.10648 0.0751944 -0.249247 -0.26456 0.0670929 -0.238024 -0.103799 0.0751716 -0.0381487 -0.0934037 0.0424777 0.0508067 -0.0508787 -0.0360899 -0.0874868 -0.0696077 0.0814484 -0.0261856 -0.0644509 -0.0994435 0.164521 0.198478 -0.0327323 0.108315 -0.0480264 0.0468466 0.13551 0.184758 -0.0296316 0.283374 -0.171187 -0.169666 0.377933 -0.0322752 0.103417 0.154627 0.0324943 -0.00700006 0.287547 -0.0461973 -0.0495684 0.154577 0.038496 -0.0355158 -0.122806 0.0749667 -0.0456192 0.336678 -0.131884 0.149138 0.0254129 0.0524742 0.0955267 -0.0196796 -0.160707 -0.0584721 -0.101256 -0.127635 0.15233 0.175907 -0.122407 0.0241124 0.0492516 -0.119707 -0.0605779 0.0286386 0.0338711 0.0427624 -0.0184792 0.0726022 0.460636 0.0128081 -0.111528 -0.1413 0.124503 -0.00361453 -0.1282 -0.16461 0.0427583 0.106225 -0.0179416 0.057844 -0.0571333 -0.0723218 -0.0653526 -0.140404 -0.101781 -0.138891 -0.0310682 -0.281057 0.268224 0.00818352 0.120966 -0.0875363 -0.0548816 0.03356 0.186063 -0.311586 0.131239 -0.0638017 0.240111 -0.0729123 0.0566203 -0.0793348 0.00865628 -0.0564672 0.0334948 0.233042 -0.0285241 0.126544 0.0366514 0.152468 -0.289004 -0.0309991 -0.0651925 -0.461147 -0.0559654 -0.0417282 -0.0569902 0.00686605 -0.0328706 -0.0992956 -0.191282 0.0387505
-0.16489 -0.00358508 -0.00103386 -0.0114333 0.0684933 -0.0771853 0.0186895 -0.0220584 0.00615501 -0.00839566 0.0856862 -0.00643677 0.0739486 -0.0781675 -0.19929 0.0340814 0.0626648 0.0026607 -0.059739 0.0231206 -0.0315494 0.0135518 0.0181829 -0.089369 0.0334329 -0.117959 -0.0489242 0.124381 -0.027846 0.0449842 0.043385 0.135273 -0.0529186 -0.0201033 -0.11191 -0.031577 -0.022329 0.0503786 -0.0113846 -0.0554816 0.0296452 -0.0696051 -0.0296899 -0.114251 0.0419883 -0.110843 0.106324 0.0046271 0.0279899 -0.0107679 -0.0910906 -0.0145557 0.0766146 0.0170953 -0.0451735 0.0295477 0.134326 -0.0618133 -0.039535 0.0114969 -0.079152 0.00234388 -0.0561991 -0.097718 0.051761 -0.0535375 0.0107687 -0.0478315 -0.0640191 0.0511492 -0.0289696 0.0314566 -0.0269238 -0.0184422 -0.031317 0.0767705 -0.106041 -0.0114528 -0.0750226 0.136599 -0.000552628 -0.014147 -0.0790806 -0.059154 0.0622525 0.109035 -0.0540143 0.0669879 0.0112565 -0.00206664 0.0625241 -0.0129862 -0.104037 -0.0792001 -0.0683535 -0.0625637 0.0480174 -0.0210247 0.0126204 0.0501917 -0.0013854 -0.05819 0.0274355 -0.0730493 0.0386328 0.0095519 0.0765552 0.0242531 0.0481096 -0.0051652 -0.0341332 0.0481191 0.0151553 -0.100107 0.0108789 0.0335781 0.0830173 -0.0688576 0.0622931 0.11281 0.0650737 0.0821524 -0.0146195 -0.0312384 -0.171715 -0.038528 0.0787571 -0.0543642
0.0219941 0.0598286 0.00405927 -0.0332426 0.036405 -0.0149989 -0.162223 0.0247794 0.0387697 -0.035911 -0.0541248 -0.0665416 -0.0634347 0.0781748 -0.0921576 -0.0155954 -0.0136406 0.0124503 -0.0817101 -0.00486235 0.096941 0.0330151 -0.0158044 -0.0751335 -0.121399 -0.0595017 -0.0329207 0.0128978 0.0472738 -0.012338 -0.0604725 0.170696 -0.149652 0.0277897 -0.0608885 0.000195455 0.00499949 -0.012872 -0.122711 0.0347782 0.00307548 0.0220045 0.0181189 0.110663 -0.0581544 0.173547 0.0120211 -0.0396738 0.0485162 -0.0764698 0.272789 -0.075308 -0.0615056 0.0117996 -0.0297129 0.0822429 0.0518347 0.134694 0.0695257 -0.0602636 0.0324354 0.0371698 0.101935 0.00578176 -0.0607459 -0.0745486 -0.0437946 0.00170293 0.00154492 0.0187268 0.033507 0.00279888 -0.0277741 0.00343235 -0.0423199 0.000138034 -0.0245525 0.0503203 0.0128841 0.0933978 0.0735314 -0.0192904 0.0452368 0.0935349 -0.00379611 0.064743 -0.0438696 -0.0349546 -0.0175173 0.037645 0.0888601 0.0299467 -0.0247785 0.0517157 -0.04831 0.0721811 0.00824639 0.0459779 -0.0163799 0.0330625 -0.0120924 -0.0874345 0.0269041 0.0213344 -0.0470574 0.0495038 0.0531129 0.0502198 -0.0057474 -0.0176269 0.0686485 -0.00175636 -0.156503 -0.091404 0.0799648 -0.110656 0.0467791 0.00675492 -0.0208747 -0.0580684 0.0210974 0.0875956 0.128509 0.0190475 -0.0431048 0.0325209 0.0609659 -0.0469946
0.095834 0.117635 -0.166905 -0.0953206 0.447129 -0.181881 -0.20265 -0.187856 0.0642632 -0.0462348 -0.129525 -0.108921 -0.0343093 0.198655 0.0245207 0.1647 -0.0968768 0.232285 -0.0795732 0.0422132 -0.0594785 -0.0341826 0.232328 0.129429 0.0708348 0.195791 -0.0613225 0.15095 -0.000314575 -0.215566 0.0885547 -0.0987301 -0.13184 -0.155797 -0.017782 0.0628571 -0.0195506 -0.0653997 0.253405 -0.0341955 -0.175967 -0.130409 -0.0853804 0.0165253 -0.069596 0.0963413 -0.100005 -0.0950619 -0.247984 -0.125884 0.131588 -0.0507426 0.0229658 0.00895511 0.0071985 0.413286 0.00376172 0.0422003 -0.234659 0.0576325 -0.00864548 0.257203 -0.0629734 0.0360856 -0.0673477 0.1645 -0.0586601 -0.02563 0.0289453 0.0058243 -0.000586053 -0.0448933 -0.0263633 0.149914 0.0184408 -0.0558951 -0.001538 -0.127654 -0.417255 -0.104073 -0.0799325 0.301501 -0.130378 0.0920404 0.0227037 -0.0672176 -0.143868 -0.119213 -0.0178454 -0.123282 -0.0545349 0.265728 0.0335624 0.0455485 -0.0308519 -0.119984 0.211536 -0.0605972 -0.0777641 -0.0482652 -0.0515618 -0.199014 0.0985159 -0.130981 -0.0421284 -0.0482665 -0.11152 -0.0736135 -0.0409168 0.139247 -0.122188 0.0206724 -0.0356316 -0.138976 -0.0158602 0.125984 -0.201657 -0.158723 -0.027671 -0.0723672 -0.118932 0.160723 -0.0351423 -0.0964196 0.0114303 -0.120427 0.00971732 0.0650747
-0.0276149 0.00174342 0.0307415 0.022209 0.027122 0.0589311 -0.0429312 0.00411756 0.0407257 0.0339391 -0.00107015 -0.0927117 0.138652 -0.022216 -0.0661902 0.0678648 -0.00108972 -0.0805541 0.00234284 0.097704 -0.0139265 -0.068708 -0.0980691 -0.0177565 0.0613503 0.0267017 -0.17158 -0.020017 0.0592443 -0.0347106 0.0279113 0.0270308 -0.0140399 0.0928407 -0.0161114 -0.0484506 -0.0755022 -0.01121 -0.0320002 0.0483223 0.0447823 0.0794757 0.0276869 -0.112393 -0.0697719 0.036839 -0.0679623 0.0647971 -0.0752203 -0.0364289 -0.0189442 -0.160152 -0.0204103 0.0236375 -0.018911 0.106927 -0.0484435 0.0619038 0.00657409 0.0383922 0.0280619 0.145681 -0.104204 -0.0357995 0.000192073 0.0444661 -0.0157989 0.0637522 -0.0652108 0.0498942 -0.110504 0.0356128 0.0868218 -0.0954615 0.0653184 -0.16688 -0.113538 -0.0133165 -0.0441204 0.0982292 -0.00340845 -0.00684201 0.0483567 -0.00866221 0.0296197 -0.0748152 0.0922836 0.0312532 0.0058208 0.0238177 -0.0436856 -0.00343335 -0.0470263 -0.126009 -0.0436907 -0.0513862 0.0478993 0.0661131 0.0451983 0.0730679 0.0529556 0.0302855 -0.0393623 -0.032848 -0.146027 0.0563411 0.0246979 -0.110262 0.0036877 -0.128097 -0.0235495 -0.0895046 0.0650048 -0.053936 0.110623 0.0862991 0.0720463 0.0908185 0.0926197 0.0284208 -0.050999 -0.00588435 -0.00812958 -0.023482 -0.0189653 0.0948946 -0.0248132 -0.0830413
-0.0254885 -0.0205714 -0.152805 -0.025828 0.0479365 -0.0676178 -0.138367 -0.0543638 -0.0681755 0.0140381 0.0648336 -0.0908293 0.0314089 -0.0599914 0.0598329 0.0725616 -0.0448482 0.0181022 0.125372 -0.0344978 0.105182 -0.0684916 0.000911376 0.216008 -0.0416989 0.167152 0.00139341 0.124673 0.0299819 0.012392 0.118884 -0.00051545 0.0840486 -0.092195 -0.0595875 -0.0664 0.00637974 0.0344747 0.252285 0.0409714 -0.171311 -0.160347 -0.0332855 0.0718718 -0.0450374 -0.0642666 -0.0714009 -0.00407732 -0.198092 0.016643 -0.0508786 0.0818261 -0.0729361 0.0116355 0.286759 0.0919739 -0.00550075 0.174517 0.0467536 0.113947 0.054013 0.155938 -0.0234068 -0.0291919 0.042003 -0.0279672 -0.0357389 -0.25575 -0.243097 -0.0209876 -0.132103 -0.118209 -0.0423241 -0.0935162 -0.108762 0.00364388 -0.0293856 0.0106711 -0.109269 0.000806774 0.079987 0.0875163 -0.110561 0.170447 0.18927 0.0290044 -0.00823458 -0.107942 -0.0719554 -0.0166365 0.0202476 0.195047 0.031922 -0.0205785 -0.0881052 0.123175 0.00189231 -0.00192862 -0.0467221 -0.00840515 -0.00841173 -0.125079 0.0106907 -0.206388 0.0055116 -0.0547545 -0.0860568 -0.13553 -0.0804462 -0.0568853 -0.0788074 -0.174458 -0.0387601 -0.0110266 0.0294326 0.290571 0.0918594 -0.122152 -0.0459602 -0.175127 -0.160632 0.156375 0.0773987 -0.0230885 0.0304801 0.0453336 -0.0241094 0.0927023
0.000135392 0.0953043 -0.0169415 -0.084168 0.00789664 0.0564579 -0.0820773 0.0591584 0.0488795 0.0387853 0.0198421 -0.0356028 0.0314771 -0.0320767 0.02743 -0.0524783 0.0416513 0.0896734 0.0277893 -0.00226614 -0.0110762 0.0543275 -0.066779 -0.0675511 0.125719 -0.0166504 0.039177 0.0558547 -0.00813077 -0.101479 -0.0810435 0.0190891 -0.0385165 -0.0854592 -0.0161738 -0.0869089 -0.0525559 0.167149 -0.00771233 -0.0614964 -0.0428797 0.0560324 -0.15717 0.0347063 -0.00132996 -0.0116741 0.0117031 -0.0824263 0.0190863 -0.0568783 0.0261928 0.0763998 0.028156 -0.0155824 -0.117793 -0.0733305 0.0740577 -0.026625 0.0344334 -0.0947802 0.131527 0.0804492 -0.0455018 -0.0327005 -0.0015029 -0.0104685 0.0810925 0.0893619 0.0294471 0.0535571 0.0338353 0.00966529 0.0320571 0.00789822 -0.0459501 -0.0971878 0.0965311 0.123201 0.0153579 0.0330889 0.0425727 0.000227931 0.0525265 -0.0118502 0.154464 -0.0347298 -0.0382763 -0.0437274 -0.0103933 -0.0195272 -0.00972458 0.0335962 0.00915666 -0.0297267 -0.013078 -0.0741249 -0.0726586 0.0762933 -0.106586 0.0111356 -0.0265834 0.0329723 0.0254722 0.137344 -0.00698137 -0.131169 0.0538669 0.00928681 0.0257317 -0.00837988 0.00984045 -0.152763 0.0588634 0.00993982 0.0949376 -0.00483296 0.0799248 -0.0979904 -0.0486578 -0.0492746 -0.0474432 0.0488665 -0.179869 -0.00820713 -0.0261422 0.00168475 0.0471801 -0.0249691
-0.095743 0.0799675 0.0691411 -0.0616011 0.0300415 -0.0313748 0.156626 0.118096 0.0106827 -0.0517142 -0.0464834 -0.0462295 0.0707701 -0.154289 0.123221 -0.0365074 -0.0312745 0.0503736 0.0554904 0.0602071 0.0289483 -0.0194406 0.0344814 0.0176208 0.144774 0.0770775 0.00766005 -0.13917 0.0372009 -0.0401047 -0.0266996 0.0105391 -0.0426849 0.0221367 0.0169213 -0.0616007 -0.0816248 -0.0218495 0.029178 -0.100012 0.0466048 -0.0313266 -0.157828 0.0158917 0.0122885 -0.0217193 -0.0413183 0.0214543 -0.0788321 -0.0850564 -0.000484145 -0.0318924 -0.0140903 0.0134677 0.0208468 0.113758 -0.0561981 -0.0377874 -0.0664142 -0.120769 0.0426116 0.0866089 -0.140205 -0.105494 -0.0517348 0.0746829 0.099884 -0.0616325 0.020181 0.0141096 -0.0212699 -0.0370128 -0.0583987 -0.0593468 0.224787 0.0779532 0.0210554 -0.0704105 -0.018662 0.0913015 0.0693541 -0.00700564 -0.0217276 0.00739239 -0.088066 -0.0276762 0.0150266 0.0659041 0.0749802 -0.0378078 0.110193 -0.0473995 0.0613864 0.0504341 0.0607463 -0.0157528 -0.0218049 -0.049987 -0.122761 -0.0428915 0.12047 -0.0118075 -0.0428663 -0.0869605 0.0696033 -0.0878506 0.0847874 0.0826857 0.0945106 -0.126032 0.0549276 0.0579641 -0.0491868 -0.0214038 0.0451142 0.0669622 -0.0781531 -0.0203148 -0.108154 0.0133584 -0.00356261 -0.0174092 0.0761438 0.203988 0.0906981 0.0634194 -0.144855 0.123619
0.102988 -0.046661 0.0817207 -0.035394 -0.0427909 0.0606515 -0.00464404 -0.0590517 -0.0225052 -0.0634484 -0.0339861 0.0697686 0.0727881 0.178911 -0.0760989 0.00360374 0.0295594 0.0161866 -0.114673 -0.111888 0.117526 0.0770604 0.178814 0.159575 -0.0711458 -0.0762801 -0.0254609 -0.107546 0.121919 0.0738021 0.012593 -0.0379252 -0.00303752 -0.00549716 -0.0823775 0.133664 0.0239044 -0.032115 -0.118965 -0.0280997 -0.0771762 0.0310511 -0.0476277 -0.0868701 -0.0567297 0.140753 -0.0592894 -0.0149104 -0.0712269 -0.03963 -0.116543 0.0773677 -0.0647985 0.151533 0.0275389 0.0593192 0.0231835 0.0366507 -0.0414021 -0.116311 -0.0771418 0.0509146 -0.0446056 -0.16677 0.0222397 -0.194976 -0.0848037 -0.0168035 0.0146869 0.291159 0.0177699 0.00475217 0.0433692 0.066499 0.0648551 0.049146 -0.0262791 -0.113076 -0.0113337 -0.0866371 -0.00797956 0.00746896 -0.0267348 0.104307 -0.0562765 0.0372322 6.81758e-05 0.0740769 0.073777 0.105541 -0.0188007 -0.195221 -0.0683526 0.168779 -0.0969329 -0.0506811 -0.00793245 -0.0320502 -0.0764673 -0.0664161 -0.0555363 -0.0672381 0.0884751 0.0488466 -0.0186547 -0.070804 0.143471 0.0689331 -0.024456 0.0131076 0.00405361 0.0469385 0.0954347 0.0519061 -0.0481878 0.10278 -0.0784811 0.141991 -0.0386565 -0.0533236 0.0310847 -0.00338228 6.4671e-06 -0.0346999 0.00291734 -0.138163 -0.0360032 -0.053909
0.0427427 -0.0539212 -0.184517 -0.0982112 0.149444 -0.0325032 -0.0961869 -0.0716453 -0.212351 0.160422 -0.074093 0.0608007 -0.0464346 0.080005 0.0127571 -0.0343087 0.0111867 0.0357636 0.032204 0.0107382 0.116237 -0.109496 0.184239 0.157061 -0.0675227 0.164396 -0.130204 0.115933 0.0760241 -0.0728497 0.133398 -0.0607566 -0.140919 -0.00271427 0.130865 0.0416169 -0.153937 -0.0936864 0.33091 0.059845 -0.158415 -0.0856487 -0.0716163 -0.054365 -0.0855524 0.0259338 -0.00476435 -0.177483 -0.0690983 0.0570292 0.0208922 0.0662986 0.0206382 -0.157122 0.137355 0.135441 -0.111598 -0.0754703 -0.0154263 0.0258761 0.0300355 0.374251 -0.149991 0.033713 0.0503923 0.112271 0.0105145 -0.160567 0.00892746 -0.0496303 -0.149484 0.000279511 0.000908136 -0.00575637 -0.12103 -0.0420237 0.0784708 -0.0091528 -0.0181719 0.0156164 -0.147783 0.313829 -0.00213864 0.115062 -0.0342233 -0.0553033 -0.0830814 0.0405599 0.0237037 -0.058758 0.0972592 0.243433 -0.137333 -0.0148922 -0.052214 0.0530344 0.0824424 -0.168635 -0.0584733 0.0204048 0.0226514 -0.0865414 -0.108624 0.00438809 -0.013288 0.0881929 -0.162793 -0.10703 -0.103666 -0.0521669 -0.0430096 -0.0687496 0.0428093 -0.154484 -0.00962323 0.228322 0.0148082 0.133972 0.00504595 -0.084162 -0.0595253 0.167214 0.100371 -0.0624944 -0.0132588 -0.163639 -0.013978 -0.0883093
0.106866 -0.104933 -0.120442 -0.0350525 0.083061 -0.0354766 -0.119074 -0.122946 -0.131539 0.0371017 -0.0253939 -0.0854078 0.118658 0.0839374 -0.114378 0.0102831 0.0112171 0.140245 0.0300443 -0.0851376 0.0558285 -0.0395618 -0.105929 0.0985025 0.0790781 0.214542 -0.061343 0.249298 -0.132912 -0.0733707 0.149358 0.090775 -0.0263644 -0.0738231 0.0251871 0.00697528 -0.0547816 -0.17321 0.223076 -0.105835 -0.104512 -0.226524 -0.0312756 0.124109 0.0416899 0.138848 -0.0176339 -0.102522 0.00657159 -0.00888773 -0.132938 0.0377258 -0.0973567 0.100004 0.315438 0.172453 0.0103004 -0.0475579 -0.00605982 -0.0197653 0.0367577 0.166723 0.0538367 0.0824606 0.0505874 -0.00818236 0.0174567 -0.174648 -0.061245 -0.084382 -0.0560194 -0.138703 -0.00150156 0.0551537 0.189273 0.0704164 -0.0424916 -0.0294422 0.0654749 0.0917232 -0.0858597 0.0733489 -0.153334 0.346856 -0.103292 0.0174694 0.0763093 -0.0881798 -0.139135 0.0310736 0.104083 0.0690911 0.0920256 0.0436651 -0.0160073 0.188696 -0.0220014 -0.16312 -0.0381547 -0.0920241 -0.0217577 0.0702823 -0.0952446 -0.182821 0.0907181 0.0921017 -0.17463 -0.0331911 -0.198574 -0.088041 0.0800421 0.0687867 0.0117588 0.0559881 0.0465626 0.132994 0.0290765 0.0446544 -0.0870982 -0.12507 -0.164844 -0.0223599 0.0465464 0.0357867 -0.213 -0.00344082 -0.00489941 0.0640256
0.231209 -0.0848918 -0.0804288 0.019858 0.0545824 0.00893888 0.0656572 -0.088941 0.037642 0.0669244 0.049926 -0.101924 0.026213 0.0867941 0.00906639 0.0888078 -0.0735457 -0.0573005 0.0587632 -0.0476557 0.128755 -0.0220718 0.217837 0.0247072 -0.0065331 0.0464214 -0.090113 0.0452196 -0.0698342 -0.122077 0.17701 -0.0511855 0.0395879 -0.0242478 -0.02179 0.00693488 0.00958811 -0.0802339 0.272932 0.0215259 -0.0673494 -0.187206 -0.173375 -0.000922582 -0.173758 -0.0354659 0.147915 -0.0837304 -0.100535 0.0237361 0.100954 0.102221 0.0703145 0.027924 0.0901911 0.192793 -0.101531 0.10221 0.0198879 0.145738 -0.0281466 0.284931 0.0601191 -0.0180945 -0.0278953 0.0724029 0.00143264 -0.107811 -0.0170577 -0.127445 -0.00267975 0.0231397 0.0606329 -0.222638 -0.0671753 -0.0984795 -0.00273527 -0.051701 0.0150456 0.0024345 -0.0789495 0.152771 -0.105066 0.151784 -0.0914297 0.0990769 -0.00123059 0.0614118 0.073337 -0.129916 0.0175213 0.222705 0.0100993 -0.0220003 -0.0939116 -0.088473 0.206224 -0.112198 -0.00402443 0.00850468 0.111669 -0.0378838 -0.0644519 -0.0685588 0.0390429 -0.124437 -0.170964 -0.0965801 -0.0298084 0.0120193 0.0363045 -0.0692339 -0.0540759 -0.191795 0.114799 0.114287 0.0647676 0.0899068 -0.0230239 -0.0875269 0.0919993 0.213114 -0.0491957 -0.187003 -0.027569 -0.11966 -0.0282324 -0.0642458
0.0664595 0.0448506 0.057978 -0.0149444 0.108238 -0.017395 0.0179202 0.0203539 -0.108269 0.0483698 -0.00553803 -0.103645 -0.0383074 -0.111629 -0.0336259 0.139345 0.00526519 0.00560936 -0.0807478 0.0326391 -0.121434 0.0310627 -0.0723679 0.0603676 -0.0564657 0.0755368 -0.0751362 0.0168017 -0.0603922 -0.0396225 0.0597025 0.0195023 0.119257 0.013038 -0.164436 -0.01519 0.151118 -0.0769987 0.121807 -0.0691091 0.0942098 0.185601 -0.0219395 -0.134713 0.00426289 -0.0288779 -0.0622351 0.0743813 -0.0146052 0.00470527 -0.0625898 -0.0153181 0.0721573 0.0419978 0.0693081 0.0374132 -0.0379604 0.0331728 -0.00884763 -0.0734044 0.0136688 0.138779 0.158063 0.125549 0.0647902 0.00750931 0.0149303 -0.0694773 0.191229 0.118909 0.0413583 -0.0976575 0.0526636 -0.00148203 -0.0461239 0.0484446 0.046176 0.0919312 0.189459 0.0293553 -0.164289 -0.0640619 0.0192726 0.00990305 -0.117838 -0.10293 0.0987056 -0.114172 -0.0665746 0.0586538 -0.0646698 0.0774394 0.0405938 -0.125256 0.0687754 0.133514 -0.0627654 -0.212042 0.0550617 0.201704 -0.101116 0.157656 -0.052079 -0.0975383 -0.16526 -0.0434116 -0.0532464 -0.00590383 0.0803516 0.130009 -0.0271321 -0.0447733 0.0500667 0.0217486 0.0947236 0.0290602 0.0419045 -0.128663 0.00906823 0.0210548 0.0574008 -0.105251 -0.0332764 -0.083245 0.0046704 -0.105272 -0.104144 0.0239986
-0.0460583 0.0239102 -0.0238904 -0.0380377 -0.00365915 -0.124476 0.0438569 0.114542 0.0877842 0.0653199 0.0598802 0.0514268 -0.0792029 -0.0519977 -0.0667464 -0.052805 0.000624763 0.0569883 0.00191468 -0.0209586 0.00859024 0.014292 0.110917 0.0259264 -0.0834748 0.0718354 -0.0901303 0.0839209 0.0668431 0.0257543 -0.00257798 0.0598743 -0.00869012 -0.0746375 0.0275885 -0.0352356 0.0232255 -0.0431559 -0.000868755 0.0387977 -0.00715235 -0.0448312 0.0908366 -0.0516317 -0.00811069 0.0859878 0.0674916 -0.0792343 0.0239618 -0.00264363 -0.0257828 -0.247356 0.00255909 0.124667 0.0236247 -0.0966968 -0.122004 -0.105671 -0.129008 -0.063002 -0.0268702 -0.0653721 -0.0181528 -0.0671859 -0.00771249 0.0158772 0.012942 0.247195 0.0385932 0.147586 0.0764863 -0.0189851 -0.0942822 -0.0340389 -0.0253281 -0.0169719 0.0310173 0.113392 -0.00846733 0.00160431 -0.0598532 0.00614241 0.0115438 -0.00536219 0.0716418 0.0518599 -0.000667139 0.0138138 0.0742814 -0.0806404 -0.0562707 -0.00700181 0.0705856 -0.0362018 0.0508335 0.0518454 0.0314675 -0.00359402 0.046079 0.0505169 0.119969 0.0405928 0.0316941 -0.000149829 -0.0293493 -0.0645081 0.0713091 -0.131357 0.10265 0.0816153 -0.0170832 0.120318 0.0231029 -0.0297624 -0.177566 -0.0333234 -0.0843344 0.0360609 0.0981558 0.0707664 0.0515407 -0.0749696 -0.00226104 -0.0542538 -0.10374 -0.0993135 -0.0173937 -0.00312372
0.00705638 -0.196038 -0.00236893 -0.054011 -0.0923569 0.0129459 -0.143413 0.0873001 0.0393434 0.0929092 0.0907089 0.0846165 -0.120764 0.0867187 -0.0826358 -0.0583484 -0.0255189 0.0440012 0.125355 0.122598 -0.0115183 -0.00847551 -0.0560905 0.18361 -0.00584671 0.19344 -0.0344072 0.0273453 0.0362379 -0.0146263 0.00266075 0.138972 0.112077 0.0852438 0.0400883 -0.0964646 0.0790234 -0.0144402 -0.217393 -0.0891782 0.200374 -0.0448283 0.0328696 0.093861 0.0327236 -0.176344 0.000180341 -0.0778079 0.0209043 0.0315379 -0.0622544 0.0194305 0.124951 0.116633 -0.028755 0.0209642 -0.0945859 -0.0326574 -0.0921855 -0.0362765 -0.0309717 0.104425 0.30777 0.231053 -0.102087 -0.0162669 -0.0227468 -0.101537 -0.0850091 -0.177598 0.0738847 0.104233 0.0851031 0.210859 0.143759 0.0379888 -0.0227753 -0.00617185 0.257524 0.0294045 -0.0914672 -0.124524 -0.0301805 0.13126 -0.230589 0.139406 0.134534 -0.108581 -0.0859885 -0.025427 0.00428713 0.00193172 0.0173472 -0.0100898 0.0356446 0.199313 -0.00763236 0.0641264 -0.0544518 -0.0355487 0.112899 0.187647 -0.00825494 0.00581795 0.0277602 -0.0213564 -0.337347 0.00878053 0.115666 0.0912555 -0.00993053 -0.0257383 0.011692 -0.0467156 0.00373358 0.0427608 -0.142626 -0.154265 0.00998439 -0.139455 0.0848065 -0.0311579 -0.124162 -0.0133133 0.0969185 -0.115689 -0.0222587 0.170656
0.206676 -0.0545189 0.0400002 -0.00353764 0.001535 0.0692284 0.155944 0.0903682 0.0663037 -0.0627441 -0.114942 0.0734384 -0.0278105 -0.0185741 -0.172899 0.0873124 0.2144 0.00870937 0.057264 0.0244826 0.0127696 -0.0175042 -0.0442398 0.0418965 0.134285 -0.034177 -0.0575587 0.0827046 0.0107936 -0.0750223 -0.0793184 -0.00738942 -0.101209 -0.036625 -0.0905777 0.0273429 0.0431513 0.172297 -0.000123465 0.0888416 0.024514 0.0333627 -0.0328487 -0.0349536 0.00635866 -0.00332756 0.0871695 0.102458 -0.012223 -0.0161574 0.0296869 0.0436758 0.00750256 0.0598338 -0.0258982 0.0787948 0.0824772 -0.00639627 -0.0341717 0.00455253 -0.0883476 0.0368293 -0.0122995 0.0201463 0.0594029 0.139148 0.106164 -0.0839904 -0.016923 0.143415 -0.099413 -0.00561113 0.0363634 -0.106041 0.000152074 -0.0797743 -0.0224819 -0.0383716 -0.0185907 0.0893315 -0.0178772 -0.00337446 -0.00370773 -0.0507891 0.0894724 -0.0210809 -0.114891 0.0501048 0.0474221 0.00483687 0.135487 0.00135934 -0.0760104 0.0386414 0.0242846 -0.147982 -0.0877063 0.0331226 0.0184834 0.039284 0.0329461 -0.100867 0.0331673 0.0157581 -0.0305555 -0.0441405 -0.184629 -0.0625502 -0.0389894 -0.0436187 0.0824941 0.172036 0.0775699 0.0887981 -0.0813604 -0.013186 0.055078 0.100628 -0.0543872 0.000753243 0.100279 -0.125182 -0.0151085 0.015085 0.0112353 -0.104653 0.075667 0.0444926
0.797984 -0.0182862 -0.00140704 0.287927 0.110512 0.0324096 -0.268199 -0.137285 -0.0632912 -0.287168 -0.00726265 0.0561411 0.416077 -0.124244 -0.00330656 -0.0344171 -0.0184534 -0.365208 -0.0794963 -0.0722254 -0.0361282 -0.139579 0.0553833 0.132885 0.214023 -0.122889 -0.147829 -0.095795 0.0862758 -0.24454 -0.0359875 0.117968 0.181813 0.063225 0.0123053 -0.12745 -0.107716 0.177369 -0.0020326 0.0804706 -0.0155937 0.0651388 0.0192314 -0.11269 -0.00472311 -0.0464828 -0.00213351 -0.00239611 0.0379143 0.278879 0.0364724 -0.250491 -0.13384 0.000216407 0.105529 -0.106024 -0.0737261 -0.130698 0.0942143 -0.387851 -0.09505 0.0888477 -0.212732 0.0417051 -0.0036525 0.0951191 -0.132057 -0.0405638 0.0617423 -0.228689 0.0893758 -0.0492292 -0.0208189 -0.166779 -0.107078 0.0044905 -0.0161687 -0.164301 -0.422075 -0.0172761 -0.358355 -0.00121632 0.414315 0.0249232 -0.0995872 -0.102618 -0.290213 -0.0785284 -0.11817 0.00560146 0.363772 0.0515949 0.0646355 -0.219405 -0.185625 -0.303637 -0.0355818 0.209636 -0.0845493 -0.0666206 -0.151422 -0.0419397 -0.221514 0.11979 -0.200073 0.00741555 0.0360409 -0.0603534 -0.0884972 -0.0310876 -0.0245134 0.196418 -0.141566 0.283788 -0.0621129 -0.216531 0.0159208 -0.259579 -0.0924353 -0.273283 0.0364745 0.195864 0.0107338 -0.00581715 -0.00592812 0.0319048 0.18744 -0.175643
-0.0781608 0.0847048 -0.0310726 -0.0866615 0.030142 0.0579428 -0.0179852 0.117301 -0.0351911 -0.105598 0.00448155 0.0362312 0.0759348 -0.0732876 0.100553 -0.0218009 0.00172891 -0.0549742 0.178073 -0.000978227 -0.0485866 0.113354 0.0289801 0.00307895 -0.0471594 0.0527511 0.122602 0.0186961 -0.00160297 -0.0341449 -0.0733987 0.0605652 -0.0887343 0.0373241 -0.0275436 -0.00992223 -0.0575144 -0.0556619 0.0411326 -0.0614839 -0.0292305 0.100384 -0.0340083 0.0889968 0.112917 0.0133995 -0.0121257 2.5901e-05 -0.0698325 0.00967067 0.0209647 -0.119221 -0.0207664 0.0321068 -0.0386215 0.023799 -0.090783 0.0638284 0.207339 0.110785 0.0257644 0.00997864 0.0230565 -0.0564892 0.0128683 0.0298735 0.0521793 0.05004 0.0643005 -0.0610078 -0.190052 0.135514 0.0496104 0.0626795 0.193172 -0.0700129 -0.0299171 -0.0696874 0.0295961 0.0611137 0.114307 0.0533372 -0.0549905 0.0295582 -0.0254075 0.0422569 0.0721227 0.067903 -0.0535158 0.0139369 -0.0546723 0.0343238 0.0452316 -0.0237102 -0.00658075 -0.0733811 0.00347842 -0.136599 0.0405264 0.134222 -0.0675041 0.0493068 0.105655 -0.0668 -0.0911439 -0.172224 -0.132042 0.0489337 -0.0708388 -0.140735 0.0312885 0.03028 -0.041924 -0.0231644 0.0374032 0.0855371 0.137652 0.0344433 0.109066 -0.00374175 0.0667243 -0.0476564 0.0517599 -0.0205262 0.0204054 -0.0181116 0.0410062 -0.0607185
-0.0854174 -0.0754856 -0.0187226 -0.0969369 -0.0239077 0.0904878 0.0473761 -0.141572 -0.0446591 0.0663261 -0.0957046 -0.0600985 -0.0452313 0.0857144 0.155999 0.0816012 0.0679877 -0.0169757 -0.0821572 -0.0812368 0.0317517 -0.0537113 0.000706894 0.0312057 0.0404807 -0.0278319 -0.0846955 -0.122467 -0.0197952 0.0270177 -0.0827598 0.0792396 0.149921 -0.107637 -0.0496903 -0.0616634 0.0229935 0.052037 0.0288186 -0.0674731 0.161429 0.124046 -0.0139607 -0.0533102 0.101712 0.0311054 0.120683 -0.0207705 -0.0624947 0.0511083 -0.0773534 0.0166961 0.0497659 -0.0913121 0.0039496 0.121469 0.120325 -0.105379 0.043376 0.0274294 -0.0127873 -0.0207116 0.148852 0.0409211 0.0699201 -0.0929515 0.107615 0.140727 -0.109986 0.0628551 0.0638649 0.0766571 -0.0393511 0.0680987 0.121538 -0.0424853 -0.0368923 0.0521419 0.134036 -0.145882 -0.0825754 -0.116378 -0.068222 0.131043 0.0118203 0.00865778 0.0368129 -0.0125742 -0.184477 -0.07675 0.0371791 -0.065623 0.157157 -0.0627043 0.141261 0.0456159 -0.0096118 0.0563915 0.0149309 -0.00266085 0.142768 0.104101 0.0877295 0.0112107 -0.0627762 0.0325666 -0.137798 -0.12824 -0.141692 0.0484713 0.01079 0.0510595 0.0729523 0.243022 0.103899 -0.0245858 0.102316 -0.019672 -0.144405 -0.0225181 0.0190164 0.0631507 -0.0435885 -0.00481517 0.00839495 -0.0877786 0.0523472 -0.0359211
0.0470925 -0.0505943 -0.0165822 0.129884 -0.1655 0.00536206 0.0828978 -0.0871884 -0.0531136 0.0114907 -0.0901395 0.0112434 -0.0662009 0.0315834 -0.0413745 0.0461172 0.042286 0.00242109 -0.0669946 -0.065136 0.0722588 -0.0234683 -0.0348404 0.0962228 0.0445109 0.0997434 0.0194846 -0.00396932 -0.0320484 0.0704413 -0.0257507 -0.0392534 -0.0597396 0.00145987 0.0699742 0.121526 -0.121136 -0.044489 0.106788 0.0195202 0.0277135 0.113271 -0.0693583 -0.0110192 -0.108244 0.124008 -0.086519 0.0672147 0.0136168 -0.0193779 0.0261423 0.0377423 -0.0333027 -0.058416 0.0570927 -0.0550079 -0.0326223 0.103145 -0.0983524 0.0690243 -0.156927 -0.0165471 -0.0262661 -0.106072 -0.0475794 -0.141478 0.0151154 0.03959 0.0153493 0.00168865 0.0494135 0.00320866 -0.0537855 -0.048258 0.0174232 -0.0711792 -0.0291073 0.00232143 0.0141292 0.110815 0.103891 0.0625156 0.138019 -0.00101675 -0.00388945 0.00356361 0.0669071 0.0507532 0.0796677 0.159826 -0.110685 0.0490794 -0.0728625 -0.129104 -0.0411466 -0.0662338 0.0696964 0.036729 -0.0591984 -0.0707782 -0.0516028 0.0158983 0.0156424 0.136012 0.0454132 0.0837513 0.0105093 -0.0781695 0.0695997 0.0507112 0.097683 0.0636344 -0.0182758 -0.0251595 -0.018164 -0.0672129 -0.00333408 0.188925 0.104301 -0.00562272 -0.045784 0.0578287 0.00213935 -0.109386 -0.108381 -0.188836 -0.105792 0.00872083
-0.0209435 0.0440301 0.114878 6.7163e-05 -0.0244009 0.0428652 0.00403225 -0.0856138 -0.174792 0.0359744 0.0174113 -0.06268 0.0892809 -0.0156806 -0.00655802 0.124961 0.061886 0.00205907 -0.0778263 -0.0545651 0.0676413 0.0888919 -0.0532691 -0.0583297 0.0783539 -0.0541836 0.0492951 0.00257993 0.110516 0.143841 0.0188449 -0.0053579 0.0204629 0.00241887 0.0865588 -0.0693038 0.0791391 -0.0734921 -0.011459 -0.0161272 -0.114405 0.0672691 0.0235317 0.00103821 -0.0359704 -0.0685857 -0.0683034 -0.054013 0.0746933 -0.0515582 0.00360149 -0.0558345 0.0196068 0.0216052 0.00933918 0.0445192 -0.0147161 0.126886 -0.123957 0.13463 0.119196 -0.0156292 -0.0442223 -0.0590502 0.00902416 -0.000843515 -0.0889898 0.0339628 -0.0435041 0.166172 -0.0997326 0.0310426 0.00532912 0.0957282 -0.101442 0.00412487 -0.0497217 -0.0946917 0.066699 -0.0938791 -0.00408372 -0.0136689 -0.089423 -0.0121752 0.00983754 0.0792609 -0.16045 -0.0637028 -0.0272238 0.0742983 -0.0585128 -0.0379074 0.0195951 0.0148181 0.0968871 -0.0125204 -0.0336991 -0.102664 0.12326 0.0261635 0.000597371 0.0136369 0.0857336 -0.035925 -0.136541 -0.0155372 0.0473432 -0.129003 0.0270415 0.0246368 -0.0263206 0.0442496 0.111551 0.0121305 0.0668445 0.112634 -0.0352391 0.0440813 0.0146147 -0.067467 -0.00512511 0.10383 0.0372903 -0.0278994 0.09687 -0.00710974 -0.109909 -0.0186139
-0.0272746 0.0343361 -0.0181942 -0.100111 -0.126684 -0.00953748 -0.0518175 -0.0522553 0.0500074 -0.0434593 -0.0922529 -0.130389 0.0641705 -0.0025664 0.0496846 0.124764 -0.0824739 -0.054607 0.0269948 -0.0522571 -0.0907298 0.00444053 0.0664184 -0.0529954 0.106017 -0.0649712 -0.139712 -0.0060789 -0.0695643 0.105973 0.205567 0.00339125 0.10378 0.0131755 -0.0393509 0.0796722 0.0177092 0.106757 0.0183501 -0.0740195 -0.02919 0.0304811 0.0108439 0.0961699 0.0111756 0.00790141 -0.060799 0.106799 -0.0787028 0.00583871 -0.0857018 0.122816 -0.0506498 -0.0354857 -0.00962485 -0.000450362 0.00233704 -0.116297 0.174178 -0.0597686 -0.0795092 0.027641 0.0375575 -0.00332292 0.0860225 -0.042674 -0.0143082 0.0148248 0.0146267 0.0113598 0.119717 0.0756168 0.0475404 -0.0135311 0.06067 -0.115008 -0.00536583 -0.0285158 0.0533547 -0.0227741 -0.0873302 0.00843281 -0.0123279 0.0280997 -0.00634444 0.0170547 -0.0804195 0.0228831 -0.0329506 0.0407526 0.118693 -0.0424446 -0.0674764 0.0344196 -0.0790398 0.0923746 0.0186317 0.0375148 0.00770599 -0.0370535 0.00167462 0.0233379 -0.0317432 0.0408753 0.019779 -0.0856437 -0.0341253 -0.0092403 -0.0543559 -0.0209935 0.0183627 -0.0557649 -0.107681 0.0953901 -0.117454 -0.00600295 -0.00283502 -0.0223038 0.0126086 -0.0604371 0.125651 0.0315327 -0.0111192 0.126756 0.0636377 -0.172058 0.0198907 0.144812
0.0613998 -0.180748 0.0493359 -0.0448084 0.0560506 -0.0849717 0.159272 0.0307379 -0.0204249 0.0423051 -0.0842862 0.0146333 -0.00651069 0.0362853 0.140442 0.0275307 -0.0763185 0.0232338 0.0133373 -0.0180123 -0.076895 -0.00553355 -0.049587 0.0418861 -0.0382793 -0.0106862 -0.0637046 0.103592 -0.0843596 0.0126404 0.00183726 0.047128 0.0164224 -0.0820905 -0.069381 0.0713062 -0.0890026 0.0223826 0.0384873 0.0530744 0.0653095 -0.146062 0.141843 0.0371531 0.0785712 -0.0719849 0.07932 0.0187451 0.0245912 0.0136837 0.0826774 -0.0810456 -0.00878891 0.00643498 -0.0549107 0.128916 0.0427459 -0.0856084 0.0612325 -0.13003 -0.0866912 -0.0348264 -0.0293938 -0.00990451 -0.198905 0.045554 -0.00256072 0.0263673 0.0625607 -0.0373268 0.104694 0.037803 -0.0648281 0.0688686 0.0421867 0.0350914 -0.0506529 -0.00535059 0.0514045 -0.00801166 -0.0340002 0.0281155 0.0914371 -0.0436319 -0.0111646 0.0915198 0.0588949 0.0287786 0.0271788 -0.0491441 0.00720956 -0.0272004 -0.036518 0.106611 -0.0942308 -0.0173829 -0.0352654 0.0246706 0.0340754 0.0134229 0.0511638 -0.0279434 -0.0292583 0.0510427 0.0145846 -0.0599202 -0.0143597 0.0224311 0.0658953 -0.00952568 -0.0541134 -0.0103286 -0.0794684 0.0966249 0.168826 -0.0638803 -0.0309937 0.0431446 0.0357294 -0.00693067 -0.056684 -0.116941 -0.136145 0.0911661 -0.0343137 0.158868 -0.062087 -0.162847
-0.113694 0.007191 -0.0619574 -0.339062 0.0955823 -0.0677588 -0.183022 0.0766714 -0.0940462 0.115789 -0.0830968 -0.109264 -0.112637 0.233041 -0.0181408 -0.0276354 0.0260805 0.13365 0.296612 -0.0194863 -0.00400775 0.0286613 0.260445 0.140567 -0.204488 0.209678 -0.0965232 0.269904 0.301091 -0.0812277 0.195204 -0.0647593 -0.153744 -0.0564345 0.0623986 -0.230207 -0.193808 -0.276378 0.0969613 -0.0695303 0.0882475 -0.137878 -0.143361 0.0229039 0.0017344 0.0710122 -0.107698 -0.220562 -0.147326 -0.262474 -0.0465883 -0.185291 -0.0536436 -0.169469 -0.136943 0.0997151 -0.261094 0.326157 -0.0768254 -0.0451374 -0.313056 0.432131 0.011467 -0.0799077 0.0522064 0.247533 -0.0515201 -0.139967 0.0407774 0.107644 -0.01345 -0.119326 -0.0111293 0.129766 -0.0391697 0.0567404 -0.0540298 -0.161903 -0.078279 0.0427487 -0.198099 0.525858 -0.328235 0.0740777 0.0284989 0.0242774 -0.1755 -0.0116833 0.0215912 0.0338406 0.190266 0.245747 0.0131496 0.0486635 -0.229385 -0.0469431 0.0396515 -0.159337 -0.11502 -0.0821122 -0.0949965 0.0628177 -0.0011176 -0.137843 0.00971502 0.00681974 -0.249558 -0.00870016 -0.141226 0.210504 -0.0461093 -0.0996094 -0.0671821 -0.245537 -0.0761075 0.161606 0.00460618 0.0795201 -0.239818 -0.168882 -0.176243 -0.11929 -0.0373986 -0.0772067 -0.109712 -0.0741908 -0.0430689 -0.0392888
0.903979 -0.114948 -0.0950767 0.309072 0.0459582 -0.0854196 -0.275256 0.0403289 0.0560697 -0.206934 -0.0155428 0.179275 0.164985 0.102754 -0.168451 -0.117306 -0.0546783 -0.0724343 -0.0338193 -0.0380381 0.0663804 -0.236154 -0.159373 0.0700362 0.15151 -0.293053 -0.113576 -0.119067 -0.232755 0.00234191 -0.0788715 0.187294 0.0510229 -0.056997 -0.106131 -0.116913 0.0824335 0.168053 0.0207275 -0.189037 -0.0733933 -0.134602 0.172841 0.044443 0.183889 0.145866 0.178108 -0.141916 0.185461 0.179983 -0.246344 -0.110033 0.0322169 -0.140235 0.21063 0.227478 -0.220543 -0.0452526 -0.0593969 -0.009602 -0.152678 0.0158824 0.0581673 -0.0261054 -0.0261247 0.033141 -0.0268794 -0.183272 -0.005135 -0.296298 0.239113 0.168596 -0.0734343 0.31449 -0.070817 -0.0643248 -0.0946794 -0.00777717 -0.559031 -0.0656031 -0.196092 -0.155897 0.130547 -0.0531221 -0.0906236 -0.0857407 -0.279404 -0.188437 -0.105931 -0.109788 -0.188887 -0.0245323 0.0256732 -0.376311 -0.0259693 -0.0912985 0.0701755 0.21016 -0.0904351 -0.0581717 0.230982 -0.0587942 -0.194674 -0.065201 -0.154454 -0.097028 0.0966714 -0.158088 0.138037 -0.0699908 -0.0371193 0.219714 -0.155791 -0.0362378 -0.112007 -0.090464 -0.0684628 -0.394367 -0.0820354 -0.412707 -0.0587118 0.135387 -0.0763747 0.0578781 -0.0560514 -0.0134441 0.212496 0.00789913
0.0346931 -0.0722136 0.0496849 0.0769451 0.0329072 -0.0223805 0.00168458 -0.0351133 0.0340275 0.080592 0.0607394 -0.000690382 0.112706 0.0430389 -0.0181272 -0.0386546 -0.0395673 -0.0175724 0.0907539 -0.0690894 -0.128391 0.0271195 0.0602388 0.0137247 0.0645196 -0.0143826 -0.0474314 0.0819409 0.140315 0.0530973 -0.0561514 -0.0213871 -0.010905 0.0992453 -0.0577567 -0.00657973 0.180732 0.0130538 -0.0634364 0.184508 -0.116133 -0.17217 -0.00536054 0.0432362 0.0184963 -0.0265565 0.0147881 0.0708322 -0.0873583 0.0277199 0.0361523 -0.0158479 0.0939466 0.186058 -0.0527469 -0.0340133 -0.0166489 -0.00128379 -0.0266469 -0.142059 0.0234558 0.00976172 0.0272953 -0.0933156 -0.0652936 0.058044 -0.0245511 0.0794608 0.0424379 -0.00315564 0.143384 -0.199951 0.0290875 -0.0792816 -0.0194706 0.0217963 -0.0174068 -0.08732 0.0540971 0.0388102 -0.0268698 0.0152021 -0.0256144 0.0941419 -0.197883 0.110352 0.0528704 0.13084 0.0300083 0.063299 0.0687381 -0.0342682 -0.0384461 -0.0397603 0.00994471 0.0619439 -0.0073746 -0.0112592 0.103596 -0.200079 -0.0100675 -0.113723 0.0512565 0.0635415 -0.0411925 -0.00964735 0.165726 -0.149079 -0.0264883 -0.00215301 0.021495 -0.107093 0.0400774 0.00242432 0.0333629 -0.067657 0.0645632 0.00319677 0.00734143 -0.0608361 0.117889 -0.0110524 -0.00312345 -0.0793674 0.117693 0.00738902 0.0118791 -0.130944
0.017759 -0.0559308 -0.114824 -0.109196 -0.0224752 -0.0284301 -0.0664341 -0.020388 -0.061107 0.0331476 0.164595 0.0468986 -0.0147093 0.0431498 -0.00116601 -0.0405824 -0.0101933 -0.0198461 -0.00533859 0.00951635 -0.0510399 -0.0866434 -0.0712648 0.0377581 -0.0964668 -0.066178 -0.00873833 -0.104711 -0.0472817 0.15917 -0.0471385 0.0303836 -0.00926553 0.00127 -0.0119394 0.036706 0.099085 -0.0192452 0.141464 0.0776543 -0.0517938 0.0333142 -0.0590054 -0.0334753 -0.050483 0.0379635 -0.0464441 0.0150373 0.0660044 0.0665338 -0.102685 0.216271 0.0052116 -0.120554 -0.0790547 -0.0396576 0.0584974 -0.00453638 -0.0466337 -0.0156496 0.0240348 -0.0396325 0.136468 0.093605 0.069193 0.0281157 -0.101196 -0.0444066 -0.0896375 -0.0652591 0.0744519 -0.0796626 -0.0322353 -0.0422215 0.0447968 -0.0693709 -0.11163 0.0249157 -0.0504666 0.00934923 0.0717792 0.000737228 0.047616 0.0462852 -0.00325523 -0.0924802 0.0265225 -0.0298568 0.150005 0.0271831 0.0560932 -0.121403 -0.00466954 0.0540111 0.0873341 -0.0316309 -0.169326 0.0258692 -0.0200274 0.0390091 0.0313272 -0.0112395 0.0958453 0.113014 -0.121592 0.0170319 0.0823236 0.0126751 -0.0359096 0.00519532 0.0368713 -0.0809671 -0.0103137 -0.107974 -0.0668937 -0.157022 0.150077 0.0544298 0.0330922 0.0966054 -0.0668309 -0.0748633 0.13729 0.0518282 0.012604 0.185705 0.054829 0.0241902
0.0307387 -0.0170229 -0.0590669 -0.167527 -0.0955585 -0.169994 0.00966817 -0.114665 -0.0533914 0.117734 0.0478259 0.0374937 0.060898 -0.111361 -0.0812574 -0.00989484 -0.0408319 0.0716887 0.0322194 0.0211486 0.0606369 0.0558143 -0.138401 0.46175 -0.0770362 0.258141 -0.0551466 -0.0118941 -0.000352694 0.0121794 0.0777542 0.395758 0.214983 0.104392 -0.0305371 0.0496019 -0.128894 0.0328465 0.113069 -0.199613 0.175898 -0.08107 0.0252799 0.064307 -0.155133 0.0566098 0.0382515 -0.159532 -0.109306 -0.0773683 -0.0673238 0.2843 -0.00892638 0.164668 0.176242 0.0177381 -0.0150447 0.0487096 -0.0939011 0.258237 -0.0784234 -0.0342335 0.290465 0.447331 -0.130451 0.0384245 0.133225 -0.237947 -0.060639 -0.180824 0.158466 -0.0401832 -0.0865628 0.134897 0.311044 -0.0410815 -0.0811152 -0.0168409 -0.330338 -0.0143259 -0.119982 -0.0504824 0.000419357 0.340903 -0.120512 -0.10753 0.137849 0.0094639 0.0349108 0.0691788 0.0154813 -0.0324666 0.180192 -0.133147 0.283525 0.385704 -0.0621145 -0.180808 0.0188195 0.110031 0.198038 0.14787 -0.104397 -0.0210971 0.0135726 0.13428 -0.255161 0.0675175 0.109976 -0.190093 0.0397395 0.41965 0.00546909 -0.0928086 0.0981314 0.510986 -0.0722216 -0.2871 -0.0905429 0.125083 0.0436159 -0.216431 0.0315658 -0.0644932 0.0301387 0.193352 0.0948955 0.24418
0.205972 0.0305189 -0.13433 0.0436852 0.123901 -0.0590009 -0.0441386 0.0119961 0.0232592 0.0442149 -0.0908787 -0.0544395 0.0228643 -0.0302277 0.109546 -0.191646 -0.0194373 -0.0452276 -0.0430022 -0.033483 -0.0916886 -0.0549481 -0.175279 -0.0253077 0.00944287 0.0443716 -0.0329377 -0.084782 0.0376282 -0.168344 -0.0338645 -0.0414358 -0.113362 -0.0704681 0.101229 -0.0045624 0.077007 0.107633 -0.0503344 -0.080995 -0.0781153 -0.00716306 -0.017727 -0.103364 -0.0528045 0.0511772 0.0345522 -0.0522275 -0.0141131 0.173845 0.0534177 -0.0157354 0.00317364 -0.133678 -0.11778 0.0195114 0.0551841 -0.106118 0.0437597 -0.133855 -0.0189249 0.0419454 -0.0229105 0.0613308 0.00245957 -0.0960976 -0.0969549 0.115852 0.0814314 0.211984 0.0511254 -0.0873088 -0.0514879 0.141995 -0.105668 -0.0319801 0.0440889 -0.226544 -0.182983 0.123308 -0.0821896 0.127845 0.19989 0.0127509 0.0594045 0.0420311 0.00504067 0.00129344 0.00479553 0.0185866 0.0846841 0.0214513 0.0671163 -0.00642907 0.0667172 -0.0690662 0.0620424 -0.0176395 0.0516186 0.0186578 -0.0790781 0.00452754 -0.0463247 -0.0642262 -0.141051 0.0163773 -0.0894638 0.0727819 -0.0170647 -0.0308664 -0.0396434 0.0579992 -0.017818 0.109291 0.0108367 -0.011526 0.0703765 -0.092643 -0.029343 -0.0333696 -0.00171505 -0.164679 0.0618931 0.0130816 -0.0764548 0.0684174 -0.00817572 -0.00470463
1.14881 -0.04398 -0.266837 0.33916 -0.0729094 0.106018 -0.382192 0.289361 -0.075402 -0.234165 -0.162009 0.608052 -0.285748 0.533214 -0.0415677 -0.16596 -0.0595799 -0.432369 -0.139851 -0.0253848 0.0252326 0.0347272 -0.351198 -0.295374 0.435702 -0.136344 -0.253591 0.0155364 -0.140573 0.365533 -0.0430762 -0.000122712 -0.122136 0.281123 -0.346182 0.0539635 0.454571 -0.200591 -0.201912 -0.107997 0.0171766 -0.402973 0.55315 -0.0362162 0.0844353 0.384448 0.263104 -0.210941 0.34507 0.237229 0.19145 -0.0247481 -0.0933744 0.0676133 -0.00864842 0.0974894 -0.0673618 -0.325177 -0.449675 0.148583 -0.107557 0.0824049 -0.213845 0.401973 -0.0479362 -0.0611758 -0.0639482 -0.229635 0.431996 0.323509 0.225055 0.202289 -0.0211605 0.386365 0.191096 -0.0327464 -0.185559 -0.128671 -0.268633 -9.8655e-05 -0.394033 0.221061 0.677102 -0.0750906 0.0340875 0.0635159 -0.441296 -0.0937508 -0.0563494 -0.117424 -0.0155951 -0.13538 -0.187485 -0.217853 0.133866 -0.55487 0.25635 -0.323929 0.138164 0.0766429 0.0915155 -0.293204 0.092614 -0.455546 -0.063441 -0.278838 0.402964 0.0948202 0.0205155 0.142821 -0.0787042 0.230495 -0.021404 -0.0025107 -0.0871248 -0.0637637 -0.502688 -0.462202 0.0724507 -0.400648 -0.172412 -0.0257689 -0.0156198 0.00333057 -0.0548264 -0.0598267 0.4217 0.122011
0.0301273 0.0341616 -0.00587639 0.0419672 0.0359683 -0.0736628 -0.292189 -0.0209551 -0.0452496 0.026798 0.0519935 -0.13268 0.0989431 0.0563027 -0.0171846 0.0326439 -0.0239596 0.144871 -0.218732 -0.033429 0.1232 0.256306 -0.0612857 0.0540791 -0.132154 0.0568284 0.0343873 0.0981104 -0.0665755 0.0136874 0.065868 0.0566587 -0.00989149 -0.165498 0.114659 -0.1643 0.0367544 -0.0159899 0.02882 -0.0484755 -0.108497 -0.0456164 -0.0132583 0.015398 0.0379682 0.0435475 -0.0816726 -0.0941467 -0.0581053 -0.0903044 -0.044643 0.0108668 0.128431 0.0198545 0.0606511 0.141534 0.00440934 -0.0470911 0.0145178 -0.0126717 -0.000616278 0.0415833 0.0746628 0.0313577 0.0303377 0.0149718 -0.0828024 -0.00968595 -0.0781516 -0.0710442 -0.0179675 -0.124059 -0.115995 -0.0704497 0.0499765 -0.0173132 0.0277601 -0.12388 0.113037 0.0368491 0.0133874 0.0718084 0.0122825 -0.0500485 -0.00416171 0.0138809 -0.0192273 0.0158817 0.0104507 0.145803 0.159978 0.00242836 -0.0393257 -0.125018 0.119946 -0.0394455 0.0378986 0.000622739 -0.103643 -0.0281077 0.104467 -0.11876 -0.0460685 0.0192116 -0.0532266 0.0297347 0.0206772 0.0257532 0.0395418 0.0321489 -0.152148 0.0578938 0.0966099 -0.0640235 0.124452 0.00999006 -0.148777 0.0830029 -0.0204503 -0.12054 -0.0910551 -0.0332638 0.0440093 -0.0551209 0.0369583 0.154815 0.000908887 -0.0802685
0.0357376 -0.0101793 -0.0333526 0.0304668 -0.0208814 0.0677844 -0.0466974 0.00348676 -0.016016 -0.0114165 -0.113422 0.119017 0.0562122 0.0147649 -0.136362 0.00239541 -0.0768496 -0.0559077 0.0702028 -0.0947795 0.0774999 -0.0861289 0.0218238 0.00734228 -0.0504897 0.00376185 -0.122146 0.0329335 0.0668689 -0.0424236 -0.0160629 0.00862463 -0.0262283 0.0925859 0.0776967 -0.0942503 -0.0562991 0.0987729 0.0803171 -0.0242327 0.00987028 0.0171623 -0.0444051 -0.0547385 0.10636 0.0541818 -0.122429 0.0187715 0.135132 -0.0474745 0.0024399 0.0801567 0.0698088 -0.0600756 0.025692 -0.0061031 -0.0536555 -0.0810489 -0.05155 0.0157593 -0.136629 0.108655 -0.0637792 -0.0207464 0.0251654 0.032611 -0.0338357 -0.0438218 0.0180018 -0.096881 0.108208 -0.0510271 -0.00593331 -0.132473 -0.0219647 -0.103388 0.00313583 0.0459385 -0.0191138 -0.0519291 0.0269964 0.0353166 -0.00559991 -0.0416881 0.0496226 0.136956 -0.0139242 0.0987966 0.0473057 0.0265515 0.150439 -0.114366 0.0168618 -0.0565258 0.0930046 0.0972059 -0.0949704 0.0925113 0.0623102 -0.0796536 0.0881098 0.0897833 -0.00430034 0.0477171 0.119375 0.0508371 0.066577 0.0493844 -0.027284 0.0867215 -0.0566428 0.0943543 -0.0692698 0.0326574 -0.0827215 -0.0374389 -0.0011831 0.079108 0.0033504 0.00985059 0.0163492 0.0238176 -0.0209316 0.0774684 -0.00972704 -0.0746435 -0.0318816 0.0148667
0.0246357 -0.0611789 -0.0259416 -0.007746 -0.0705278 0.102829 0.0146301 0.045123 -0.0448455 0.0273902 -0.048484 -0.13788 0.12225 -0.0512971 -0.0873644 -0.0534937 -0.0287717 -0.106118 0.0567925 -0.114663 0.0343104 0.00373471 0.0489382 -0.125018 -0.0328085 -0.0556239 -0.0055809 -0.0285465 0.000875285 0.0418832 0.00280966 -0.000436482 0.00345558 -0.0165114 0.00439002 -0.149133 0.00405517 0.0112975 -0.00229897 -0.104166 0.0477983 0.0190279 0.0620002 0.0136212 -0.109621 0.128978 0.0467825 -0.0484984 0.0276201 -0.0326026 -0.0203432 0.0963409 -0.041154 -0.0579603 0.00676425 0.0212341 0.151728 -0.0323352 0.0563833 0.0909665 -0.0688979 -0.0549633 0.0558824 0.0385382 -0.0665415 0.0636441 -0.00731815 0.0793763 -0.0503179 -0.0671669 -0.052475 -0.0711335 0.06832 0.00912136 -0.0907521 0.0254126 0.0322182 0.0320679 0.0844981 -0.0201827 -0.0128935 0.0845034 -0.0356608 0.139366 0.0434432 0.0456338 -0.0657312 0.0147727 0.0570022 0.0169515 0.00718975 0.0376747 -0.0523286 0.0350596 0.0708009 0.0403897 -0.040971 0.108828 0.0541512 0.0197378 -0.0758395 -0.102138 -0.128111 -0.0352145 -0.103262 -0.00604738 0.00117116 0.100061 0.012547 -0.00341475 0.0822865 0.0842498 -0.0904233 -0.0859878 -0.0790963 -0.000309743 0.10979 0.0939518 0.0898421 0.0186473 0.0832262 0.0294154 0.0585196 0.0134829 0.0845363 -0.0113486 0.0248501 0.0594013
-0.0126128 -0.00222297 -0.0647201 0.0344831 -0.0868468 -0.026226 0.00269541 -0.119629 -0.0109734 -0.043499 -0.019269 0.00367408 -0.0272209 -0.0535804 0.0150792 -0.152515 -0.115091 0.0644633 -0.091437 -0.0828341 -0.00477087 -0.120671 0.0436502 0.016986 -0.0614607 0.0857313 -0.168856 0.0741853 0.00167316 -0.0683283 0.280588 0.103543 -0.165777 0.0517566 -0.0412292 0.121648 -0.0245485 -0.0333603 0.211044 -0.0377096 0.067974 0.00555119 -0.0889036 0.130702 -0.0215032 0.207824 -0.0316562 -0.0489113 -0.069609 -0.0231947 -0.0207033 -0.00307538 -0.0385446 -0.0299704 0.122233 0.192039 -0.0317903 0.01648 -0.0323016 -0.0812787 0.0269557 -0.00179594 0.030664 0.0359886 -0.117981 0.0375087 -0.0755532 -0.00446808 0.0275281 0.00185956 -0.0991831 -0.0252195 0.224483 0.0256903 -0.0578994 -0.0588142 0.0549299 0.032921 -0.11365 -0.0144376 -0.00170275 0.0814253 -0.0293259 0.0287707 0.0868632 -0.112216 0.0155121 -0.0372069 -0.0377224 0.00357648 0.0516817 0.00901743 -0.0317434 -0.0314387 0.107669 -0.00371175 0.210732 0.0406781 0.0164737 0.0521593 0.0254828 0.00138368 0.103498 0.075069 -0.0583111 -0.0758699 -0.0743196 -0.0451563 -0.06915 0.188249 -0.00621456 0.0232462 0.152096 -0.0205251 0.01979 0.228524 -0.0215843 -0.050828 -0.0730545 0.0178315 0.00492562 0.186636 0.0272346 -0.05236 0.08661 0.04461 0.017981 0.126657
0.0101497 0.108651 -0.068668 0.0149193 -0.128766 0.083272 -0.0165182 0.0138041 0.0703457 -0.0164567 -0.086293 0.0486677 -0.0477696 -0.117101 -0.0138884 -0.0856432 0.0594996 0.126805 0.141055 0.00422444 -0.064742 -0.0786422 -0.0576788 0.00130396 -0.0308392 -0.0146576 0.0536691 -0.154737 0.051662 -0.101856 0.0100222 0.0381023 -0.038523 -0.00295044 -0.105292 -0.105484 0.035418 0.0904936 -0.0704234 -0.0507397 0.105223 0.0507044 0.036107 0.0841769 0.116528 -0.0041587 0.0391202 0.054192 -0.103496 -0.00542277 -0.0615074 0.0960418 -0.0761501 -0.034808 -0.114845 -0.0145924 0.0217066 0.119588 -0.063387 -0.143792 0.103539 -0.00734321 -0.00869895 -0.0224141 -0.00224417 -0.0667898 -0.0834596 -0.0958096 -0.0668134 -0.00835712 0.108028 -0.0313809 -0.0207394 -0.0128594 -0.161354 -0.118686 0.000129609 0.0258901 -0.0380306 -0.00794596 0.0226773 -0.0228895 0.0785133 0.0247446 -0.00282563 -0.0767034 -0.114373 -0.0556575 0.0158077 -0.0907515 -0.0118825 0.136067 -0.0177636 -0.0113154 -0.11348 -0.073299 0.00312849 0.020822 -0.0328944 -0.042223 0.0768544 -0.0488462 0.108139 -0.11194 -0.0575739 0.122745 -0.0218434 -0.0768148 -0.000820482 -0.0797371 -0.0477901 0.0253503 -0.0936133 0.0740535 -0.159718 0.0579338 -0.0205067 -0.107903 0.042427 0.00253897 0.0196868 -0.0587124 -0.00149708 0.0337143 0.0558429 0.0619535 0.148178 -0.153616
0.0505017 -0.0446229 -0.14868 0.0581772 0.0776485 0.00918901 -0.10431 0.00349525 -0.0572629 0.0708116 -0.115794 -0.0309401 -0.0311019 0.0957716 -0.0969765 0.228769 -0.0385773 0.138162 0.149349 -0.0202098 0.0586327 -0.0524426 0.0356189 0.0827656 -0.151763 0.0790436 -0.00133494 0.166851 0.133021 -0.0787357 0.169042 0.0498397 -0.0410869 -0.0203528 -0.0458022 -0.0572152 -0.0494454 -0.0708066 0.191454 -0.0586273 0.0152812 -0.0555272 -0.106084 -0.0467903 0.0161377 0.0546828 0.0233387 0.116915 -0.0108745 -0.0890388 -0.0195712 -0.0439264 0.0493423 -0.253763 0.18879 0.10088 0.0204744 0.0125906 0.00225085 -0.033269 0.0268276 0.283409 0.0746662 -0.00807289 -0.0622135 -0.164897 -0.110088 0.0365845 -0.0114584 -0.181943 -0.0643626 -0.00952471 -0.0227256 0.0030628 -0.107677 0.00968045 0.0410522 0.0828352 -0.0651891 -0.0248867 -0.0105866 0.139082 0.00239904 -0.0214897 -0.0376631 0.0521376 -0.159535 0.0878806 -0.00023922 -0.0916463 0.111149 0.117212 0.016248 0.0485659 -0.0916008 0.129115 0.185912 -0.175052 -0.0870235 0.109865 -0.0156666 -0.1711 -0.0768364 -0.0608023 -0.0288329 -0.00970739 -0.094155 -0.0349373 -0.0143748 0.0409454 -0.0199088 -0.0467772 0.0420056 -0.113483 0.0862171 0.143284 -0.0531958 0.0780687 -0.0659162 -0.239194 0.0204033 0.276453 -0.00657334 -0.0666439 0.0768152 -0.0894896 0.0766915 0.0391557
-0.0721826 -0.0125821 0.033241 0.0170129 0.104753 -0.0739592 0.0686473 0.00602005 -0.0612874 0.0573033 0.0881849 -0.0455333 0.102035 0.0246362 0.10768 -0.000119398 -0.0589701 0.0100464 0.0292351 0.0166594 0.105601 -0.0389314 -0.0576631 -0.11355 -0.0212858 0.040456 0.0778667 -0.0144006 -0.0891441 0.0272164 0.0313963 0.0294966 -0.0978842 -0.0281679 0.0997351 0.0212789 0.0552105 0.0967645 0.0994205 0.0494068 -0.0143403 0.0454077 0.00235158 0.0821655 -0.0917868 -0.039448 0.058298 -0.0814727 -0.0383286 0.018934 -0.102856 0.161281 0.0388313 0.00684835 -0.048102 0.0897694 -0.0528375 -0.0293778 -0.0615723 0.00852661 -0.0199395 0.0117932 0.039773 -0.0187594 -0.0422468 0.00325363 -0.0113973 0.0353186 -0.129122 0.0273203 -0.08944 0.0915271 0.0221729 -0.0711897 0.09983 0.0489904 0.0199648 -0.0800335 -0.0745618 -0.0207913 -0.00798334 0.0145748 0.0333165 0.00814292 0.163482 0.121633 0.0471778 0.0636298 -0.031349 -0.000520283 -0.0338327 -0.131134 -0.0641685 -0.00176343 0.0479097 0.0601507 0.0090498 -0.0145336 -0.145459 0.098249 -0.0336373 0.00684444 0.122094 -0.00466078 -0.121113 -0.042141 0.0470858 -0.0194171 0.0185939 -0.0222707 -0.0236625 -0.0240189 0.0582646 0.115448 0.138557 0.0567305 0.0222765 0.0308105 -0.112467 0.0234195 -0.125435 -0.0279759 -0.0503346 -0.0245235 -0.0302521 -0.0863437 0.103292 0.0121544
0.0262604 0.0717783 -0.0591271 0.0240457 -0.0953701 -0.0229168 -0.0845298 0.0102056 -0.071557 0.053007 0.0166839 -0.0379462 -0.00496168 -0.0019683 0.0121041 -0.0127411 0.0687233 -0.0197265 0.0133485 0.0681509 -0.113664 0.0499926 0.0773073 -0.00297088 0.00528521 0.0971004 -0.0360144 0.0853762 0.195683 -0.0135765 0.0323793 0.0620825 -0.174655 -0.0433265 -0.0254286 -0.101621 0.0124799 0.0106418 -0.0466244 -0.129778 -0.0979356 0.0409919 0.174199 0.0381303 0.0164245 -0.0237948 -0.0605069 -0.0122978 -0.0243711 -0.00954208 0.0429167 -0.120168 -0.0949641 0.0396529 0.018838 -0.0410126 0.0394735 0.0250495 -0.0694533 -0.00868188 -0.00950042 -0.0975081 0.0595468 0.00738153 0.0533918 -0.0080205 0.174914 0.0377786 0.067364 -0.0149105 0.0141604 -0.0357867 -0.157104 0.132138 0.0530477 -0.0828579 -0.146796 -0.0600244 0.0902952 0.0142354 -0.00740544 -0.0875043 0.104442 -0.0454302 -0.032865 0.0728238 0.0212082 0.0902424 -0.113471 0.00793539 -0.0177954 -0.00263079 -0.0417026 -0.0722302 -0.0247333 0.0349978 -0.00530109 -0.0855438 0.093994 0.0158974 -0.0516633 0.0134628 -0.0192025 -0.162125 0.0112922 -0.0504451 -0.0585451 -0.163264 0.0581303 -0.120246 -0.0347144 -0.0461064 -0.0152071 -0.021192 0.0559333 -0.00468854 0.0578896 0.069075 0.00947011 -0.0502994 -0.0716128 0.0019388 -0.0440128 -0.0674794 -0.0476945 0.0635946 -0.0479215 0.113905
