128 6
0.784674 0.555048 1.04034 0.437444 0.89609 0.713344
-0.0564178 -0.163054 0.339969 -0.0750636 -0.0721641 -0.0606125
0.427694 -0.148855 0.0425387 0.245433 0.322376 1.14129
1.28203 0.533039 0.161495 0.668143 0.66495 0.867692
0.607876 0.703696 0.486096 0.390678 0.56826 0.502678
0.686833 0.387529 0.369559 0.243393 0.522197 0.782016
0.775027 -0.225586 0.237286 0.9403 0.462412 0.91396
0.480304 -0.0132335 0.263623 0.694897 0.749729 0.397202
-0.0220583 -0.263406 0.0629064 -0.145198 -0.0427242 0.159226
0.614983 0.457526 0.426435 0.887431 0.661781 0.624345
0.0969359 -0.0398807 0.0309775 0.147246 -0.1662 0.188971
0.779803 0.0993053 -0.0378236 0.650892 0.624089 0.492796
0.755406 0.315539 0.716764 0.459852 0.499565 0.481851
-0.242062 0.469125 -0.16209 0.468784 0.206925 0.0910453
-0.0695801 -0.191897 0.1575 0.013796 -0.0275419 -0.0127229
0.91156 0.480702 0.00290488 0.328512 0.529635 0.953554
0.111377 -0.239862 -0.160405 0.37831 0.117805 0.104817
0.750768 0.610603 0.741384 0.698213 0.603902 0.563825
0.0180305 -0.00830476 -0.0679387 0.27957 -0.0391024 -0.219303
0.0800325 -0.289186 0.100891 -0.19818 -0.0465488 0.112381
-0.368777 0.516455 -0.492021 0.00144554 0.0285897 0.159236
0.385646 -0.0128188 0.114997 0.871213 0.318935 0.764946
0.505102 0.616259 0.569969 0.48916 0.242972 0.20847
0.00888782 0.533385 0.113641 -0.338948 0.0589892 0.0359393
0.722816 0.485485 0.952494 0.615282 0.56625 0.734932
-0.359727 0.609996 0.026762 0.0779212 0.301507 0.175392
0.0874073 -0.116337 0.081241 0.280854 0.20495 0.377274
-0.00278974 0.394271 -0.0567187 0.147312 0.0718655 -0.0363639
0.0141806 0.118407 0.0609983 0.155898 0.0893402 0.0675142
0.583087 -0.11935 0.0651331 0.744512 0.686802 0.630275
0.207733 0.569435 0.142437 0.165544 0.285309 0.187039
-0.754913 0.279562 -0.363075 -0.443909 -0.412194 0.902843
0.335667 -0.215904 0.176681 -0.060318 0.122002 0.677433
-0.580468 0.062093 -0.371412 -0.377678 -0.121739 0.129687
0.574632 0.31485 0.806357 0.649525 0.314753 0.518781
0.596296 0.168113 0.330661 0.780895 0.615845 0.540831
-0.571881 0.133372 -0.562953 0.171216 0.226503 0.230852
0.59323 -0.0213449 0.690539 0.394069 0.168028 0.346733
0.286414 0.764582 -0.0482428 -0.0217576 0.0151982 0.297535
0.881432 0.567457 0.689931 0.495975 0.597396 1.02725
0.069695 -0.166278 -0.0791247 0.254906 0.334035 0.863173
0.783748 0.0807009 0.5622 0.721271 0.521842 0.567221
-0.361888 0.250194 0.0207921 -0.051805 -0.193878 0.330623
-0.00760489 -0.0455413 0.0973088 -0.280804 0.0632208 0.0900546
-0.451339 0.323253 -0.0312982 -0.178956 -0.114174 0.220852
-0.352574 0.524927 -0.0683553 -0.0503382 0.00197999 0.217097
-0.34995 0.178557 -0.188805 -0.236468 -0.00942698 0.333055
0.233373 0.00784936 0.15653 0.0240393 -0.166591 0.26651
0.0965381 0.130898 -0.171672 0.0365582 0.377549 0.60752
0.582604 0.210235 0.552536 0.25265 0.884006 0.505081
0.750733 0.345627 0.774434 0.734128 0.444314 0.495907
-0.311631 0.0389806 -0.197686 -0.377937 -0.0650153 0.761967
0.136888 -0.0661607 0.127308 -0.0300167 0.0197562 0.0359347
-0.036275 0.170291 -0.289775 -0.138854 0.274016 0.534201
1.11249 0.719445 0.000624729 -0.0627802 -0.103805 0.960941
0.60008 0.756639 -0.138475 -0.464791 -0.590114 0.651296
0.258812 -0.00980852 0.0884634 0.219249 0.0844335 0.243303
-0.512743 0.00066109 -0.228828 -0.0946164 0.202421 0.0869343
0.875284 0.0942534 0.928141 0.664656 0.568202 0.635012
0.235532 0.415366 0.233084 0.862048 0.819364 0.456003
0.492045 0.182979 0.0816787 0.405744 0.550928 0.832428
-0.0937691 0.881608 0.216181 -0.135228 0.0291105 0.0427195
0.45978 0.33156 0.129551 -0.150343 0.153915 0.757536
-0.716336 0.0839532 -0.498896 -0.517963 -0.0390156 0.413113
-0.012441 -0.122808 0.00556235 -0.0450412 0.0899062 -0.109833
-0.231722 0.543239 -0.153538 0.0278543 -0.171228 -0.136169
-0.0376791 0.0412601 -0.0411649 -0.113364 -0.0865217 0.249578
0.845836 -0.0880316 0.593437 0.875288 0.694936 0.753615
0.707649 -0.0153873 0.386328 0.794851 0.831048 0.633023
0.863217 0.0472668 0.801331 0.872375 0.846685 0.646232
0.402289 0.0196036 -0.0794352 0.283791 0.212174 0.686495
-0.163407 0.423491 -0.0297746 -0.108531 -0.318529 0.166165
0.0719264 -0.000112516 0.0719066 -0.0620443 0.153487 0.108612
-0.32508 0.154424 -0.269868 0.249395 0.336204 0.119041
-0.5303 -0.0689834 -0.4951 0.405882 0.667032 1.05771
0.15521 -0.14763 -0.0534117 -0.175388 0.013022 0.0032319
0.130564 0.0324407 0.162885 -0.0194539 -0.0443718 -0.0179629
0.796181 -0.0973904 0.502444 0.576519 0.370699 1.13025
0.762521 0.321666 0.879213 0.807119 0.558057 0.913009
-0.206713 -0.206295 0.0918556 0.0544457 -0.174678 0.103781
0.57024 0.28543 0.711838 0.454852 0.380327 0.854386
0.747543 0.73489 0.68137 0.867415 0.620616 0.67884
0.808155 0.227161 0.436525 0.769524 0.765888 0.768315
0.56425 0.583889 -0.152171 -0.127888 0.115643 0.42032
-0.0368506 0.0596142 -0.0362533 0.0313584 -0.270034 -0.00439547
0.0509717 -0.132282 -0.169729 0.00831766 0.0120132 0.292385
0.640987 -0.0412049 0.495861 0.792292 0.632649 0.801771
0.348955 0.0319559 0.243616 0.442045 0.0533509 0.604416
0.0434786 -0.0342032 0.0487342 -0.00330186 -0.0721449 0.0578842
0.304299 -0.0629537 0.307734 0.272672 0.0134027 0.188444
0.327481 0.187262 0.386803 0.442584 0.149761 0.13276
0.13986 0.721551 -0.0344007 0.0481792 -0.0421387 0.0462288
0.037396 0.0771185 0.0464257 -0.116453 0.0178969 0.125988
0.801996 0.428123 0.407538 0.552941 0.562434 0.770046
-0.387784 -0.0974594 -0.45572 0.243062 0.449057 1.00197
0.685118 0.496128 0.897126 0.523932 0.337897 0.944186
0.226364 0.791272 -0.00555516 -0.00789089 -0.351852 0.356063
0.636722 0.00732155 0.233277 0.23513 0.0993169 0.231578
-0.00964432 0.131976 0.0610433 -0.124182 0.0795399 0.308311
0.178446 0.136084 0.0721452 -0.120898 -0.0190507 0.303741
0.216891 0.253913 0.144716 -0.48307 -0.216467 0.372297
0.882548 0.272177 0.251266 0.551822 0.671773 1.05884
-0.128331 -0.0502227 -0.0449774 -0.0550996 -0.201637 0.243007
0.935509 -0.0312007 1.04149 0.721167 0.727447 0.745199
0.24399 0.163416 0.0650196 -0.0660395 0.0420053 0.550169
-0.0865987 -0.0741246 -0.0738931 0.108142 -0.0748342 0.0916319
-0.231728 -0.201732 0.01935 0.167263 -0.0391139 0.411475
-0.481829 0.0479401 -0.123937 -0.230205 -0.153724 0.280046
-0.538416 0.0466464 -0.167671 -0.206523 -0.67081 0.111789
-0.102069 0.518526 -0.37706 0.287512 0.279492 0.420672
-0.372438 0.109738 -0.249404 -0.0401565 0.00754144 0.422536
-0.368794 -0.130935 -0.0512465 -0.199976 -0.158544 0.270683
-0.000126091 -0.0593455 -0.0139297 0.0091319 0.0690205 -0.027768
0.575094 -0.0996487 0.300483 0.142268 0.245315 0.844338
0.508482 0.332367 0.490617 0.213994 0.518787 0.0920244
-0.323334 0.4766 -0.329424 0.0793288 0.229736 0.112842
0.791245 0.382438 0.534651 0.93693 0.41699 0.748549
1.03305 0.659022 1.41633 0.925793 0.708787 1.16114
-0.186247 -0.0750547 -0.01447 -0.0359961 -0.184175 0.167738
0.842866 -0.16171 0.544238 0.921165 0.87392 0.930744
0.0370956 -0.0205046 -0.0067812 0.316066 0.206262 0.375938
1.26507 0.887992 0.583402 0.150969 0.394447 0.948019
0.0952598 -0.210344 -0.0596144 -0.0391581 -0.135572 -0.245674
0.164253 0.0820434 0.00611633 -0.0904868 -0.0209616 0.122276
0.0727401 -0.0163768 0.0297917 0.0505578 0.227902 0.00176313
0.228554 -0.156602 0.188384 -0.118962 -0.0388927 0.41481
0.0485734 0.244035 -0.4231 0.437183 0.478554 0.645253
-0.220653 0.199986 -0.182993 -0.0887597 -0.210356 0.348136
