128
0.302918 -0.130162 0.312841 -0.00978717 0.0611686 -0.013635 -0.0146165 -0.16537 -0.0951367 -0.175661 -0.0614914 -0.179292 -0.1489 -0.137034 -0.0794042 0.726348 -0.0918466 -0.752192 0.0146196 -0.0840244 0.0606066 0.126038 -0.0643804 0.014663 0.14365 0.343062 0.0346485 0.0178208 -0.0301676 -0.291393 -0.564756 1.29422 0.238561 0.589252 0.57072 -0.340696 0.121135 -0.316973 0.241997 0.510899 0.72413 -0.046391 0.0560214 -0.172551 0.0850137 -0.0977012 0.151497 -0.191392 -0.00881199 -0.266402 -0.00432291 0.630098 -0.0836278 0.268904 0.467997 0.287168 0.0320977 0.0909061 -0.0705612 0.158374 0.380658 0.250972 0.207206 0.805864 -0.204089 0.125997 0.0945777 -0.472814 -0.461073 -1.81768 0.117109 0.167478 -0.0546803 0.322015 1.16809 -0.0693943 -0.0381507 0.260137 0.588052 -0.11318 0.523747 -0.53798 -0.628226 0.313036 -0.123816 -0.0340317 0.0425575 -0.00747691 -0.0995507 -0.133005 -0.51022 0.173492 0.013994 0.451256 0.72519 0.76579 0.133178 0.240114 0.148601 0.0251807 0.312334 0.28324 -0.0211043 -0.605107 0.267661 -0.0102641 -0.274171 0.131244 0.141228 0.503287 0.182567 0.0376516 -0.0914259 0.44255 -0.395814 0.484397 -0.117184 0.449285 -0.147689 -0.0480808 0.170199 0.517875 -0.0360988 -0.00473259 -0.0668222 0.120569 0.337967 0.227419
